#ifndef WEIGHTS_H
#define WEIGHTS_H
#define CONV1_INPUT_DIM 28
#define CONV1_KERNEL_DIM 3
#define CONV1_NUM_KERNELS 8
#define CONV1_INPUT_CHANNELS 1
#define POOL1_INPUT_DIM 28
#define POOL1_INPUT_CHANNELS 8
#define POOL1_STRIDE 2
#define CONV2_INPUT_DIM 14
#define CONV2_KERNEL_DIM 3
#define CONV2_NUM_KERNELS 16
#define CONV2_INPUT_CHANNELS 8
#define POOL2_INPUT_DIM 14
#define POOL2_INPUT_CHANNELS 16
#define POOL2_STRIDE 2
#define CONV3_INPUT_DIM 7
#define CONV3_KERNEL_DIM 3
#define CONV3_NUM_KERNELS 32
#define CONV3_INPUT_CHANNELS 16
#define POOL3_INPUT_DIM 7
#define POOL3_INPUT_CHANNELS 32
#define POOL3_STRIDE 4
#define DENSE1_INPUT_DIM 32
#define DENSE1_OUTPUT_DIM 10
float b1[8] = {
0.2806851565837860,
-0.0073323706164956,
-0.0542619414627552,
-0.0997891575098038,
0.3710362017154694,
-0.1054094433784485,
-0.1543613225221634,
-0.0820859968662262,
};
float w1[72] = {
0.1066984385251999,
0.0319414660334587,
0.0375143624842167,
-0.0055292053148150,
-0.2817370891571045,
-0.0521819964051247,
0.0770740285515785,
-0.1627908945083618,
0.1111104339361191,
0.1256823241710663,
-0.1456679850816727,
0.1431528329849243,
-0.2675820887088776,
0.0862159878015518,
0.0614610500633717,
0.0900352671742439,
-0.1805814802646637,
0.0703019425272942,
0.0060942638665438,
-0.0129250008612871,
-0.0125526608899236,
-0.0109726535156369,
-0.2279613167047501,
0.0648101344704628,
-0.0094613404944539,
-0.1303900778293610,
-0.1536003053188324,
-0.1537919789552689,
-0.0670498535037041,
0.0054933666251600,
-0.1963831633329391,
-0.0652973651885986,
-0.0003907529171556,
-0.0026045083068311,
-0.3238933682441711,
-0.2760865092277527,
0.0521702766418457,
0.0452490597963333,
0.0925918594002724,
-0.1203492581844330,
-0.1740769892930984,
0.0647410899400711,
-0.0107919592410326,
-0.0066493297927082,
-0.2409878224134445,
-0.0673011168837547,
-0.0335907451808453,
0.1414604634046555,
-0.1137351915240288,
-0.0224486980587244,
0.1718389838933945,
0.1233245655894279,
-0.0047218450345099,
0.0807910561561584,
-0.1500342637300491,
-0.0456350035965443,
-0.1494489163160324,
-0.1235316693782806,
0.1535713523626328,
0.1344029456377029,
0.1487653702497482,
0.1483021229505539,
0.1200814172625542,
0.0054634143598378,
-0.0571804046630859,
-0.1374853551387787,
-0.2854539155960083,
-0.0102245127782226,
-0.0358269587159157,
-0.0200532246381044,
-0.1491145193576813,
0.0213854387402534,
};
float b2[16] = {
-0.0727893114089966,
-0.1136351972818375,
0.3615558147430420,
-0.0132147800177336,
0.1391663849353790,
-0.3081216514110565,
-0.0439044497907162,
-0.1062070131301880,
-0.2280692458152771,
-0.1769539564847946,
-0.0471588522195816,
0.0187848620116711,
-0.1479856520891190,
-0.1649895161390305,
0.2834213376045227,
0.0062042442150414,
};
float w2[1152] = {
0.1536488980054855,
-0.0328066311776638,
-0.0014057346852496,
0.1014809012413025,
-0.0363564752042294,
0.1493697464466095,
-0.0059112813323736,
0.0170050002634525,
0.0839408636093140,
-0.0279373712837696,
0.2104652374982834,
-0.0725130066275597,
-0.0673946514725685,
0.0436112023890018,
0.0406579747796059,
-0.0613697469234467,
0.1247120574116707,
0.0601724050939083,
-0.0815212205052376,
0.0107528120279312,
-0.1104824393987656,
0.0062184901908040,
-0.0782599523663521,
0.0120763303712010,
-0.0523125678300858,
0.0783132016658783,
-0.0524980686604977,
-0.0761261135339737,
-0.0358764789998531,
-0.0772752165794373,
-0.0031406963244081,
0.1044898927211761,
0.0288478899747133,
-0.0653494670987129,
0.0453418344259262,
0.0136192366480827,
0.0300416219979525,
-0.0501516088843346,
0.0826247483491898,
0.0931726545095444,
-0.1630136370658875,
-0.0256903190165758,
-0.0187658276408911,
0.1135642975568771,
-0.1194424852728844,
0.0570807456970215,
-0.0440945886075497,
0.0885540768504143,
-0.0752031654119492,
0.0832687392830849,
0.0058103743940592,
0.0173116978257895,
-0.0103270011022687,
0.0413039289414883,
-0.0522455610334873,
0.0121392719447613,
0.0513319894671440,
0.0333388522267342,
0.0001415607694071,
-0.1023089811205864,
-0.1808540076017380,
0.0094097191467881,
-0.0669139623641968,
-0.0825696960091591,
-0.1498757451772690,
-0.0012254713801667,
-0.1041719317436218,
-0.0322825610637665,
-0.1145782470703125,
-0.1705527901649475,
0.1010676324367523,
-0.0032431958243251,
-0.0775313526391983,
-0.3488880097866058,
-0.1316563934087753,
-0.1200558990240097,
-0.2724894881248474,
0.1810998022556305,
-0.0634022429585457,
0.0953175425529480,
0.1132406070828438,
0.0299265999346972,
0.0789487510919571,
-0.0591947138309479,
-0.2203675657510757,
0.1267620474100113,
0.0384449474513531,
0.0554582551121712,
-0.0904692783951759,
0.0107380365952849,
-0.0479590557515621,
0.1528271138668060,
0.1798583120107651,
-0.1531142145395279,
-0.0917190462350845,
-0.1563426554203033,
0.0670587420463562,
0.0022482948843390,
-0.1196733117103577,
-0.0566002801060677,
0.0299324207007885,
0.0826460197567940,
-0.0038682008162141,
0.0852864310145378,
0.0498402193188667,
-0.0349590964615345,
0.0642689466476440,
0.0078730490058661,
-0.2057696133852005,
0.1310557872056961,
0.0322811938822269,
-0.0886509418487549,
-0.1055974811315536,
-0.0712947919964790,
-0.1403830498456955,
0.0808643400669098,
0.0752933621406555,
0.0502092130482197,
0.0083894385024905,
0.0567978098988533,
-0.0789670124650002,
0.1157115697860718,
-0.1448897272348404,
0.0179369933903217,
0.0695153325796127,
0.0330681391060352,
-0.1438670456409454,
-0.1092197000980377,
0.1141967847943306,
-0.0007208128226921,
0.0772257819771767,
-0.0988614484667778,
0.1622453778982162,
-0.1185595467686653,
0.0873274579644203,
-0.0230334252119064,
0.1226731166243553,
-0.1283545345067978,
0.1348625570535660,
0.0212758947163820,
-0.0561553835868835,
0.1995509117841721,
-0.0168398972600698,
-0.0862784013152122,
0.0921442210674286,
0.0629663690924644,
-0.2285157591104507,
0.0001862915232778,
-0.1138368099927902,
-0.0576067529618740,
0.0111395325511694,
0.1001182422041893,
-0.0761166960000992,
0.0358642786741257,
0.0831373631954193,
-0.2059305459260941,
0.0316295064985752,
-0.1309485882520676,
0.0941121652722359,
-0.0183068569749594,
-0.0426257960498333,
-0.0945192053914070,
-0.0426320768892765,
0.0529001206159592,
0.0819433405995369,
0.0111487647518516,
0.1243838518857956,
0.0333287268877029,
-0.0748725682497025,
0.0070033008232713,
-0.0987776666879654,
0.0896031334996223,
-0.1605025380849838,
-0.0190335158258677,
-0.1534888446331024,
0.1936910301446915,
0.0099018365144730,
0.0399734750390053,
-0.1301956921815872,
0.0312670767307281,
-0.0205207262188196,
0.1180567964911461,
-0.0451235696673393,
-0.0151706943288445,
0.0283321905881166,
0.0234718471765518,
-0.0190430171787739,
-0.0772851854562759,
-0.0068656220100820,
-0.1376005560159683,
-0.0074153104797006,
-0.0948778390884399,
-0.1772566437721252,
-0.1377540528774261,
0.0187066476792097,
-0.2141985446214676,
-0.0100006246939301,
-0.1560946106910706,
0.0658118799328804,
-0.1221567317843437,
-0.0615641437470913,
-0.1611840575933456,
-0.2739668488502502,
-0.2218447774648666,
-0.1736289709806442,
-0.1035807654261589,
0.1868664771318436,
0.1022440716624260,
-0.0221275985240936,
0.0793652981519699,
-0.0878155380487442,
-0.0237546004354954,
-0.1626553535461426,
-0.0380602627992630,
-0.0101001355797052,
0.0885490030050278,
0.0924165844917297,
-0.1118948385119438,
-0.0258015263825655,
0.0858538076281548,
-0.0164122786372900,
0.0103840464726090,
-0.0510088652372360,
-0.0533000119030476,
-0.0263574104756117,
-0.0136288665235043,
-0.0108345011249185,
-0.1540468186140060,
0.1598224788904190,
0.1407451033592224,
0.0255581382662058,
-0.1089986264705658,
-0.0090062115341425,
0.0108105177059770,
0.0887960568070412,
-0.0042047635652125,
-0.0901096388697624,
-0.1083490327000618,
-0.1664801090955734,
0.0093956738710403,
-0.0467306226491928,
0.0137019706889987,
-0.0072981938719749,
0.1226790919899940,
0.0735095217823982,
-0.0190139822661877,
0.0721392408013344,
0.0008404360851273,
0.0591603219509125,
0.0105271833017468,
-0.0520756952464581,
-0.1137404516339302,
-0.2510184645652771,
-0.1671205908060074,
-0.0146828852593899,
-0.0091601349413395,
0.0827824398875237,
-0.0126532502472401,
0.0705628022551537,
-0.0307179819792509,
0.0118276989087462,
0.0101385693997145,
0.0893292874097824,
-0.0743927955627441,
0.2009588032960892,
-0.1183978095650673,
0.0947210714221001,
-0.0424126125872135,
0.0248749237507582,
-0.1201917231082916,
-0.0352671183645725,
-0.0862240418791771,
0.1475111395120621,
-0.1225456222891808,
-0.2866443395614624,
0.1349329501390457,
0.1696850210428238,
0.0865413546562195,
-0.1559091210365295,
-0.0287127979099751,
-0.0087442900985479,
-0.0162272080779076,
-0.0132622802630067,
-0.1589091271162033,
0.0885026678442955,
-0.5625497698783875,
-0.0851475819945335,
-0.1450626552104950,
-0.1043017879128456,
-0.1332732439041138,
0.0694244578480721,
-0.0309834182262421,
0.1843971908092499,
0.1274600327014923,
-0.1903213262557983,
-0.1614695340394974,
-0.1205859556794167,
0.1578644067049026,
-0.1193161085247993,
0.0994642674922943,
-0.0682719722390175,
-0.0181365571916103,
-0.0117929233238101,
0.0492002964019775,
-0.0373526439070702,
-0.0034008934162557,
-0.2164521366357803,
-0.0855608806014061,
0.0465475507080555,
-0.0037696969229728,
-0.0025841626338661,
0.0122674116864800,
0.0095933005213737,
-0.0377222672104836,
0.0039120102301240,
-0.1941603273153305,
0.0555723533034325,
-0.0878734663128853,
0.1402356624603271,
-0.0258961375802755,
-0.2166394442319870,
-0.3240883052349091,
-0.1895125359296799,
-0.2400458306074142,
0.0812961906194687,
-0.2103319913148880,
-0.0003083799965680,
0.0350242517888546,
0.0062664235010743,
-0.2101396620273590,
-0.0968394801020622,
-0.0132519509643316,
0.2288684397935867,
0.0703477561473846,
0.0324179567396641,
-0.4605467617511749,
0.0324459373950958,
0.0829771608114243,
-0.0965846329927444,
-0.0096612293273211,
-0.0175733491778374,
0.0286931395530701,
0.0586772486567497,
0.0572488382458687,
0.0205790996551514,
-0.0336940139532089,
0.0572093278169632,
-0.0272150598466396,
0.0465278103947639,
-0.0760925635695457,
-0.0541070848703384,
-0.1630386412143707,
0.0568930283188820,
-0.0382671914994717,
0.0402511879801750,
0.0466350428760052,
-0.0549900382757187,
0.1449967026710510,
0.0912848562002182,
-0.2087341398000717,
0.0252265967428684,
0.0744407922029495,
0.0256205014884472,
-0.3081912994384766,
0.1275797784328461,
-0.1338972747325897,
-0.1424168497323990,
0.0734668821096420,
0.0110030863434076,
0.1071919798851013,
-0.1113471835851669,
0.1485473066568375,
-0.0769171416759491,
0.0289877634495497,
0.1572398096323013,
0.0622811838984489,
0.0308481585234404,
-0.0550564602017403,
0.0389669202268124,
-0.0271260645240545,
-0.3073535859584808,
-0.0240549296140671,
-0.0653865188360214,
-0.0047771916724741,
-0.0946072787046432,
0.1539726704359055,
0.2148319035768509,
-0.0813972204923630,
-0.1576654165983200,
0.0465430058538914,
0.0357659459114075,
-0.0310481619089842,
0.0119502265006304,
-0.2270647883415222,
0.2172587215900421,
-0.0747099220752716,
-0.0430549830198288,
0.0815469771623611,
0.0026261676102877,
-0.1252650767564774,
0.1189942359924316,
-0.1557913422584534,
0.1186854541301727,
0.0358700156211853,
-0.2431766986846924,
-0.0076359692029655,
-0.0196606162935495,
0.0093835098668933,
-0.0612112358212471,
-0.1357888728380203,
-0.0350866355001926,
0.0959782451391220,
0.0390747413039207,
0.0567329190671444,
-0.1860967576503754,
-0.1958609521389008,
0.1214107647538185,
-0.1706915497779846,
0.0729586333036423,
-0.0301237516105175,
0.0420908406376839,
0.1314903795719147,
0.0246742889285088,
-0.0827597826719284,
-0.0662727877497673,
-0.2114294469356537,
-0.0815049931406975,
0.1585450023412704,
0.0104394182562828,
0.0347272828221321,
0.0113673480227590,
0.0992846339941025,
-0.0795496106147766,
0.0891566872596741,
-0.0441739372909069,
-0.0764013081789017,
0.0049715056084096,
0.0142762884497643,
0.0657993257045746,
0.0411304719746113,
-0.0175385475158691,
-0.0125662311911583,
-0.0521372668445110,
-0.1450804471969604,
-0.0563426539301872,
-0.1179030090570450,
-0.2129396200180054,
-0.0541026070713997,
0.0035932997707278,
-0.0789699926972389,
0.0631004050374031,
-0.1611634641885757,
-0.0918639525771141,
-0.0997350215911865,
0.0963810682296753,
-0.0933449342846870,
-0.0502259805798531,
-0.0889165699481964,
-0.2713162899017334,
-0.0905368477106094,
0.0928280800580978,
0.2101386934518814,
0.0326567478477955,
0.1007768884301186,
-0.0104195298627019,
0.0215980596840382,
0.1007686555385590,
0.0968068018555641,
-0.1180233880877495,
0.0132126165553927,
-0.0107430256903172,
-0.1430088579654694,
0.1255002021789551,
-0.1843632906675339,
-0.0196575224399567,
0.0246476810425520,
0.1446898281574249,
-0.0605118535459042,
-0.3826866745948792,
0.1258700937032700,
-0.0739396438002586,
-0.0862331762909889,
0.1288614273071289,
-0.0944747477769852,
0.0248898323625326,
-0.1793108135461807,
0.0408855229616165,
-0.1843009442090988,
-0.1500310748815536,
-0.0472412221133709,
0.0687121003866196,
-0.0650283619761467,
0.0069692092947662,
0.1438571363687515,
-0.0593967586755753,
0.1198605522513390,
-0.0095930462703109,
0.0087985144928098,
0.1708422452211380,
-0.2171789407730103,
-0.1473484933376312,
0.0011887211585417,
-0.0263769607990980,
0.0539691187441349,
-0.0200157538056374,
0.1052614599466324,
0.1095400378108025,
-0.0050019021145999,
-0.1340553760528564,
-0.0796823874115944,
0.0576842129230499,
0.0604320056736469,
-0.0465110875666142,
0.0064681237563491,
0.1418751776218414,
0.1961330473423004,
0.0565452836453915,
0.0221686102449894,
-0.0377574339509010,
0.0291895940899849,
-0.1512776017189026,
-0.0323367230594158,
0.0351568721234798,
0.0712977498769760,
-0.2172607481479645,
0.0522996596992016,
-0.0305848922580481,
-0.1097711697220802,
-0.1063097789883614,
-0.0504297241568565,
-0.0825694724917412,
-0.0811501666903496,
0.1072879210114479,
-0.0109308091923594,
-0.0767153874039650,
0.0984836444258690,
0.0649945735931396,
0.1134003922343254,
-0.0056970189325511,
0.0676370039582253,
0.1257821917533875,
-0.2642384469509125,
-0.0207517761737108,
0.1468462049961090,
-0.0443317666649818,
-0.0851181745529175,
-0.2041961699724197,
0.0975277945399284,
0.0724915862083435,
0.0095625510439277,
-0.0253562387079000,
-0.1840149760246277,
0.0436005853116512,
0.0058147786185145,
-0.0554790571331978,
-0.0391106121242046,
0.0388170257210732,
0.0999287143349648,
-0.0930713340640068,
0.1280300319194794,
0.0280610714107752,
-0.0267844963818789,
-0.1809017509222031,
0.0369510427117348,
-0.0507334917783737,
0.0857277065515518,
0.0348711013793945,
0.0180802308022976,
0.0606649182736874,
0.0221302248537540,
-0.0251175314188004,
-0.0576451569795609,
-0.0904503390192986,
-0.0334806889295578,
-0.1096363589167595,
-0.1911550462245941,
-0.1805649399757385,
-0.0855190753936768,
0.0520568676292896,
-0.2871733009815216,
0.0308068469166756,
-0.2573803365230560,
-0.0320578925311565,
0.1814982146024704,
0.1656313687562943,
-0.1678786724805832,
-0.1910174340009689,
-0.0829284638166428,
-0.1042369827628136,
-0.0111481426283717,
0.2114339917898178,
0.0325257293879986,
0.0816991329193115,
-0.0756836608052254,
0.0792536661028862,
0.0632965788245201,
-0.0102522065863013,
-0.0110663669183850,
0.0400743074715137,
-0.0379281342029572,
-0.1082037836313248,
-0.0728346034884453,
0.0120594454929233,
0.1108872219920158,
0.0717441514134407,
-0.1629304736852646,
0.0057861539535224,
-0.0995693579316139,
0.0621852427721024,
0.1638460755348206,
0.0038309486117214,
0.0786617696285248,
-0.0706982165575027,
0.0208190083503723,
0.0785731002688408,
-0.0975160971283913,
-0.0474895499646664,
-0.2255011349916458,
-0.1006945222616196,
0.0694334581494331,
-0.2122184634208679,
-0.0511790476739407,
0.0446330755949020,
0.0651963576674461,
0.0393350236117840,
-0.1060351952910423,
-0.2162277251482010,
-0.0388707257807255,
-0.0668918713927269,
0.0419276095926762,
-0.0096950298175216,
-0.0049148350954056,
-0.0752016678452492,
0.0471031032502651,
0.1012336239218712,
-0.0527673959732056,
-0.1810005009174347,
-0.0942838862538338,
0.1369856446981430,
0.0800707787275314,
-0.0927289426326752,
0.1170481145381927,
0.1109517142176628,
0.1626232117414474,
-0.0854780375957489,
-0.0767294466495514,
-0.0956427454948425,
-0.0120845884084702,
0.0548508837819099,
-0.3104944825172424,
-0.0351044684648514,
-0.0880424678325653,
0.1014038100838661,
-0.0218537580221891,
-0.0068088904954493,
-0.0728954449295998,
0.0211931969970465,
0.0820999667048454,
-0.1149049848318100,
-0.1224693804979324,
0.0458712987601757,
-0.0795468091964722,
-0.2100908160209656,
0.1158878803253174,
0.0821125954389572,
-0.0402492545545101,
0.1239606365561485,
-0.3188389539718628,
0.0135835986584425,
-0.2457549422979355,
-0.1471048891544342,
-0.1558217108249664,
-0.0656440332531929,
0.0055106617510319,
-0.1237975358963013,
-0.0268603451550007,
0.0055953506380320,
0.0305282492190599,
-0.1038277596235275,
-0.0238047279417515,
0.0508673191070557,
0.0018294182373211,
0.0244251284748316,
-0.0643520802259445,
0.0152134010568261,
0.0595256462693214,
-0.0629362687468529,
0.0986377298831940,
0.0465868972241879,
-0.1107840836048126,
-0.0051630097441375,
0.0074136173352599,
0.1350467205047607,
0.0337130613625050,
-0.0118375085294247,
-0.0291576404124498,
0.0893602371215820,
-0.0609272420406342,
-0.0681689530611038,
-0.1035900041460991,
0.0802083909511566,
-0.0763117074966431,
-0.0209642983973026,
-0.0843175575137138,
-0.1309639811515808,
-0.4720339775085449,
0.0099110472947359,
0.0299169700592756,
0.1519067883491516,
-0.2647407948970795,
0.0043748742900789,
0.0362984538078308,
0.0663108155131340,
0.0514618158340454,
-0.0711322501301765,
-0.0874741375446320,
0.0699602589011192,
-0.1833173185586929,
0.0725973099470139,
-0.0691082030534744,
-0.2407806962728500,
0.0260394793003798,
-0.0183608178049326,
0.0632015168666840,
-0.1153508648276329,
0.0491824895143509,
-0.0658333227038383,
0.0505506768822670,
0.0067146308720112,
0.1405512541532516,
-0.0880320966243744,
-0.2210099250078201,
-0.0497106052935123,
0.0660788416862488,
0.0151526741683483,
-0.0504284575581551,
0.1493568718433380,
0.0293240733444691,
0.0654531940817833,
-0.0276467595249414,
-0.0729599595069885,
0.2189751565456390,
0.1661381870508194,
0.0576105304062366,
-0.1696644872426987,
-0.0219283401966095,
-0.0039024555590004,
0.2178997695446014,
0.1468325257301331,
0.1014047563076019,
-0.1104750111699104,
-0.1341056674718857,
-0.2742607593536377,
-0.1302085518836975,
-0.0638545081019402,
-0.1068123504519463,
-0.0324329733848572,
0.1027709096670151,
0.1804223805665970,
0.0049410373903811,
-0.2021847963333130,
0.0528565123677254,
-0.0893210619688034,
0.0682450458407402,
-0.1450781673192978,
0.0699386149644852,
-0.0376360863447189,
0.0948380604386330,
-0.0912361219525337,
0.0578196123242378,
0.1315805464982986,
0.1257306933403015,
-0.0072297621518373,
-0.2633092999458313,
0.0577585212886333,
-0.1452340185642242,
-0.2421604096889496,
-0.2456006854772568,
-0.0841129347681999,
-0.0619484223425388,
0.0091514196246862,
0.0295751430094242,
-0.1717118620872498,
0.2592118084430695,
0.0635910332202911,
-0.0849088355898857,
-0.0376059785485268,
-0.0094259912148118,
-0.0692190304398537,
0.0090008871629834,
0.0885698124766350,
0.1975542753934860,
-0.0710327178239822,
-0.0065052737481892,
-0.0207103770226240,
-0.0745591819286346,
-0.1733119189739227,
-0.1067862808704376,
0.1538118720054626,
-0.0923748537898064,
0.0909133329987526,
0.0106554059311748,
0.1478552818298340,
0.0420489311218262,
0.1619914621114731,
0.1436842232942581,
0.0393982604146004,
0.0886494666337967,
0.0384354405105114,
-0.2173681408166885,
-0.1743504554033279,
0.0342721529304981,
-0.0757819116115570,
0.0395376496016979,
0.1088323816657066,
-0.0067832991480827,
0.0775075331330299,
-0.0237949136644602,
-0.1629256308078766,
-0.1451968103647232,
-0.0961353555321693,
0.0627678781747818,
-0.0500043891370296,
0.1022035852074623,
-0.0245688166469336,
-0.1164518669247627,
0.0025156878400594,
-0.1779280602931976,
-0.0062920264899731,
-0.0092424750328064,
-0.1814415752887726,
0.0242054071277380,
-0.0108972508460283,
-0.4707610309123993,
0.2143732607364655,
-0.1743827611207962,
-0.0321392938494682,
-0.3800180256366730,
0.0441247001290321,
-0.0170689485967159,
-0.0040845815092325,
-0.1122083663940430,
-0.2779233753681183,
-0.0510518737137318,
0.1093100756406784,
-0.0007418013410643,
0.2149862200021744,
0.1143943220376968,
-0.0632523298263550,
0.1032835990190506,
-0.1675021350383759,
-0.0494628846645355,
-0.1302674859762192,
0.1021240726113319,
-0.0740133896470070,
-0.1230408102273941,
0.0003960184112657,
-0.1316292583942413,
-0.1831850111484528,
0.1167159676551819,
0.0416824519634247,
0.0271796900779009,
-0.1774933934211731,
0.1720854938030243,
-0.0316327735781670,
-0.0143321491777897,
0.0388381406664848,
0.0287246983498335,
-0.1863251030445099,
0.1817404031753540,
-0.0058629745617509,
-0.0851082280278206,
-0.0529022850096226,
0.0936706885695457,
-0.0703065246343613,
0.0368625856935978,
0.1407146155834198,
0.0842613354325294,
0.1265589445829391,
-0.0799429863691330,
0.0637086629867554,
0.0273479074239731,
-0.1494682580232620,
0.0264274924993515,
-0.1485124975442886,
-0.1195022240281105,
-0.0826047435402870,
-0.1575555354356766,
-0.0569349788129330,
-0.1733748763799667,
-0.0761763080954552,
0.0076921023428440,
-0.0835609808564186,
-0.0036538101267070,
-0.0050625349394977,
0.0413311943411827,
-0.1082579642534256,
0.0655451342463493,
0.0243721101433039,
0.1178556755185127,
-0.0740010291337967,
-0.0388131327927113,
0.1240586638450623,
-0.0877917036414146,
-0.1743992567062378,
-0.0340166203677654,
0.0285768248140812,
-0.0615370608866215,
-0.0090440902858973,
0.0591787770390511,
0.0829156115651131,
0.0665906593203545,
-0.0552328005433083,
0.0953741371631622,
-0.1905149519443512,
0.0932662263512611,
0.0003645167453215,
-0.0969940125942230,
0.0214461199939251,
0.1046462953090668,
0.0751328021287918,
-0.0093636699020863,
0.1716598123311996,
-0.1128910705447197,
0.0273858308792114,
-0.1149110570549965,
0.2725540101528168,
-0.1184352189302444,
-0.0609212517738342,
0.1361278742551804,
-0.2448697239160538,
-0.0802096948027611,
-0.0825344324111938,
-0.1998484581708908,
-0.1278128176927567,
-0.0712101534008980,
0.0721209868788719,
0.0223235730081797,
-0.0614003688097000,
-0.0397723875939846,
-0.1297705322504044,
-0.1283240616321564,
-0.0412832461297512,
0.1227964088320732,
-0.0871251672506332,
-0.0863077417016029,
-0.0103804813697934,
-0.1199374571442604,
-0.0418288707733154,
0.1065234243869781,
0.1680930554866791,
0.0998306646943092,
-0.0065915822051466,
-0.1067273691296577,
0.0066306092776358,
-0.2471092045307159,
0.0744065493345261,
-0.0371518768370152,
-0.0130328228697181,
-0.1090337336063385,
-0.0771120563149452,
-0.1520036756992340,
-0.0139684788882732,
0.1176502108573914,
-0.1014309450984001,
-0.1674701124429703,
-0.0509230382740498,
0.0889584943652153,
-0.0467285178601742,
-0.1870538741350174,
-0.0917584225535393,
-0.1006404906511307,
0.1034201681613922,
-0.0735522881150246,
0.1516885757446289,
0.0124712577089667,
0.0904532670974731,
-0.0467946380376816,
-0.0722325146198273,
-0.0975453555583954,
0.0415250211954117,
0.0946913138031960,
-0.0698714405298233,
-0.1077066957950592,
0.0517204031348228,
-0.0805315449833870,
-0.0443949475884438,
-0.0093578770756721,
-0.1054933890700340,
0.1108182519674301,
-0.1232398971915245,
0.1045396402478218,
0.0425547957420349,
-0.0656241104006767,
-0.0859858989715576,
0.2638508379459381,
-0.0676444917917252,
-0.0418231189250946,
-0.0157363582402468,
-0.1412410140037537,
0.0793532580137253,
-0.1897127032279968,
0.1716702282428741,
0.1497691273689270,
-0.0652136877179146,
-0.0644322410225868,
-0.1163323447108269,
-0.2360720038414001,
-0.0842298865318298,
0.1506387740373611,
-0.1109659224748611,
-0.1105593889951706,
0.0228076092898846,
0.0422475673258305,
-0.1435877978801727,
-0.1643272042274475,
-0.0151357986032963,
-0.1700078994035721,
-0.0811541303992271,
0.0318228118121624,
-0.1411478221416473,
0.0587553232908249,
0.1689936071634293,
-0.0599938556551933,
-0.0456794388592243,
-0.0929611846804619,
-0.0436930246651173,
0.2330062091350555,
0.0049489014782012,
-0.0837180241942406,
-0.0966749042272568,
0.1996431201696396,
-0.3380641043186188,
-0.1524592638015747,
0.1820593476295471,
-0.0099688582122326,
0.0812754333019257,
0.1776498556137085,
0.1314865201711655,
-0.0682204514741898,
-0.1854686141014099,
-0.0206541810184717,
-0.2075913995504379,
-0.0034733633510768,
-0.1034348011016846,
-0.0625183880329132,
-0.2319269329309464,
-0.1027057021856308,
0.0106345945969224,
-0.0241269040852785,
-0.0453818589448929,
-0.2375051230192184,
0.1207759454846382,
-0.0406732670962811,
0.0808561295270920,
0.0300144143402576,
0.0361309982836246,
0.0736596584320068,
-0.0621954612433910,
-0.0223164074122906,
-0.0643435716629028,
-0.1756395250558853,
0.0148374158889055,
-0.0175818558782339,
0.0874820575118065,
-0.0684875398874283,
-0.1574932634830475,
0.0913823097944260,
0.1071015074849129,
-0.1796043515205383,
0.0630527958273888,
0.1193861365318298,
-0.0440286099910736,
-0.0846612155437469,
0.1230373755097389,
-0.1038395836949348,
0.0897597447037697,
0.0564851537346840,
-0.0773452892899513,
0.1218013092875481,
0.1113451942801476,
-0.0700764656066895,
0.0649422705173492,
-0.1399185955524445,
-0.0938255339860916,
-0.0657026395201683,
-0.0512424260377884,
-0.1594094038009644,
-0.2373082041740417,
-0.1850728690624237,
0.1509490162134171,
-0.0597132965922356,
-0.1248130649328232,
-0.1275637596845627,
-0.0620551742613316,
0.0468875318765640,
0.1139043048024178,
-0.2152097374200821,
-0.1000119522213936,
-0.1284750998020172,
0.1839166134595871,
-0.1535736024379730,
0.2953188717365265,
0.1423485726118088,
-0.1846514791250229,
0.0479403138160706,
0.0697948709130287,
-0.1120807006955147,
0.1031512767076492,
0.0393530018627644,
-0.0400443524122238,
-0.0852812007069588,
0.0821588635444641,
0.0295324511826038,
0.0620773285627365,
0.0568254329264164,
-0.2167670875787735,
0.1244687959551811,
-0.0997567772865295,
-0.0946471616625786,
0.0626054331660271,
-0.0274890605360270,
0.1308348178863525,
0.1810718923807144,
-0.3324016630649567,
0.0043185623362660,
0.1159309074282646,
-0.0728156343102455,
-0.1420271396636963,
-0.0889625251293182,
0.0362439677119255,
-0.2261742055416107,
-0.1667265444993973,
0.0145597122609615,
0.0829527974128723,
-0.1241758465766907,
-0.3370702862739563,
0.1397357881069183,
-0.1567252725362778,
-0.1335403472185135,
0.0622870475053787,
-0.0500073507428169,
0.1373225897550583,
-0.0964976400136948,
-0.1720132231712341,
0.0556496791541576,
-0.0060385973192751,
0.0082097575068474,
0.0148229449987411,
0.0878410488367081,
-0.1444413512945175,
0.0326323732733727,
};
float b3[32] = {
0.0228826478123665,
0.0570297017693520,
0.0428522340953350,
0.0634736716747284,
-0.0927323698997498,
-0.0269554182887077,
0.4645852744579315,
-0.0419116429984570,
-0.0199576988816261,
-0.1075264140963554,
-0.0929696261882782,
-0.1364895999431610,
-0.0420152060687542,
-0.0534555129706860,
0.0336399972438812,
-0.0965303331613541,
-0.0700225606560707,
-0.0196360871195793,
0.0035335675347596,
-0.0467462055385113,
-0.0260641667991877,
0.0407143011689186,
0.0180253498256207,
0.0517360530793667,
-0.1048767045140266,
-0.0960958153009415,
-0.0031920503824949,
-0.0708105340600014,
-0.0207524560391903,
-0.0342723242938519,
-0.1085060015320778,
0.0860416293144226,
};
float w3[4608] = {
0.0238842703402042,
0.0934540405869484,
0.0528441555798054,
-0.0435810610651970,
-0.0138323893770576,
0.0714335069060326,
0.0376645810902119,
-0.0490656644105911,
0.0089206416159868,
0.0759868696331978,
0.1578386723995209,
0.1857465952634811,
0.0857123956084251,
0.0962449312210083,
0.1287645846605301,
0.1622048169374466,
0.1545905321836472,
0.1616715341806412,
-0.0556687414646149,
-0.0119133442640305,
0.0421587526798248,
-0.1154318824410439,
0.0616630055010319,
0.0856276601552963,
-0.0211416408419609,
-0.0004928860580549,
-0.0273657515645027,
0.0208806712180376,
0.1412568986415863,
-0.0758847519755363,
-0.0224397834390402,
-0.0717532187700272,
-0.1509279608726501,
0.0152834011241794,
0.0143203241750598,
0.0001584313868079,
-0.2012819498777390,
0.0286088492721319,
0.0499881431460381,
-0.0513600967824459,
0.1534629613161087,
-0.1266522854566574,
0.0739517360925674,
0.2158337235450745,
-0.1121641546487808,
-0.0952744409441948,
0.0923150554299355,
0.0615758746862411,
0.1401447653770447,
-0.0564118139445782,
-0.0537504553794861,
0.0135234892368317,
-0.0583790801465511,
0.0598838552832603,
0.1266259998083115,
-0.0046226768754423,
-0.0382645204663277,
-0.0195647478103638,
-0.0680352300405502,
0.1091986373066902,
0.1006183326244354,
-0.0443049445748329,
0.0023316426668316,
0.0023818935733289,
-0.3131208717823029,
0.0976340696215630,
-0.0426513515412807,
-0.0830576121807098,
-0.1184195876121521,
-0.0493232421576977,
-0.0395106561481953,
0.1605910509824753,
0.0224606972187757,
0.1758559048175812,
0.0788636505603790,
-0.0159903466701508,
-0.1057825684547424,
0.0783761590719223,
-0.1032287701964378,
0.0645128414034843,
0.0051219193264842,
-0.0593451857566833,
-0.0477526001632214,
0.2380957454442978,
-0.0664044767618179,
-0.2090024501085281,
0.0167197324335575,
-0.0579764060676098,
-0.0339368209242821,
0.0821878835558891,
0.0790508836507797,
-0.1761610805988312,
0.0372347496449947,
0.0123268123716116,
-0.0356334485113621,
0.4378456175327301,
-0.0410279408097267,
0.1411551833152771,
0.0290548633784056,
-0.0178808849304914,
0.0122560821473598,
0.0371227301657200,
-0.0204660836607218,
-0.0898675471544266,
-0.0541008748114109,
-0.1078557297587395,
0.0757984817028046,
0.1418567299842834,
0.0432005897164345,
0.0527746081352234,
0.1949777901172638,
-0.0128378048539162,
0.1459741741418839,
-0.1742806732654572,
-0.0059664919972420,
-0.0144772324711084,
0.0976501479744911,
0.0163136590272188,
0.1127728447318077,
0.0150769213214517,
-0.2234840095043182,
-0.0075478092767298,
0.0760583430528641,
-0.0291681010276079,
0.0980592444539070,
-0.1142855286598206,
0.0292985849082470,
0.0400330983102322,
-0.1158119738101959,
-0.0615617819130421,
-0.0636168494820595,
-0.0373833216726780,
0.0511708669364452,
-0.0937260389328003,
0.0137567147612572,
0.1062075868248940,
-0.0303821098059416,
0.0586713552474976,
-0.0103134652599692,
-0.0499961823225021,
0.0442092269659042,
0.0745880976319313,
-0.0913157388567924,
-0.0338177382946014,
-0.0889649540185928,
-0.0190969686955214,
-0.0163243003189564,
-0.0899053364992142,
-0.0715459659695625,
-0.1053315252065659,
-0.0897640362381935,
0.0819879025220871,
0.1178656890988350,
0.0725701972842216,
-0.0250444840639830,
0.0064236149191856,
-0.0218915455043316,
0.0162206515669823,
-0.0542196147143841,
-0.1096737384796143,
-0.0513185337185860,
-0.0759171396493912,
0.0323412567377090,
-0.1232661530375481,
-0.0912194028496742,
0.0618419907987118,
0.1348406523466110,
-0.1733231693506241,
-0.0456761047244072,
-0.1327065080404282,
0.0644582808017731,
-0.0158111397176981,
-0.1434178203344345,
-0.0159674547612667,
0.0254141688346863,
0.2354375571012497,
0.1170302778482437,
-0.1164391860365868,
-0.1428773701190948,
-0.0993714183568954,
-0.0834041386842728,
0.0176034420728683,
0.1300365179777145,
-0.0671601817011833,
-0.0296927634626627,
-0.0716195777058601,
0.0061395769007504,
0.0590324886143208,
0.0749828144907951,
0.0073171132244170,
-0.0151059841737151,
-0.1184320971369743,
-0.1364336013793945,
0.0698708370327950,
0.0756713226437569,
0.0822382494807243,
0.0060048056766391,
-0.0474535226821899,
-0.1704152226448059,
0.0007954905740917,
0.1414502561092377,
-0.1985361129045486,
0.0763569697737694,
-0.0291171930730343,
-0.0650003552436829,
0.0319841392338276,
0.0241293311119080,
0.1130069717764854,
-0.0412253923714161,
-0.0770838633179665,
-0.2383220642805099,
-0.0559747256338596,
0.0695433989167213,
0.0298027321696281,
0.0469926111400127,
-0.1131219863891602,
0.0561162121593952,
0.0854487493634224,
-0.0757528170943260,
0.0503176376223564,
0.0213213302195072,
0.0086646303534508,
0.0722111463546753,
0.1299976855516434,
0.0112211387604475,
0.0775276497006416,
0.1162002235651016,
0.0397065207362175,
0.0173875056207180,
0.0897135436534882,
0.1105502545833588,
-0.1356219202280045,
-0.1163085326552391,
-0.0342730768024921,
0.1561294347047806,
0.1380163431167603,
0.0584747157990932,
0.0374860689043999,
0.0981158539652824,
0.0787129625678062,
0.0132222138345242,
0.0953095853328705,
-0.0219217538833618,
-0.0548452027142048,
0.0064441915601492,
-0.0791800767183304,
-0.0046303602866828,
0.0372109860181808,
-0.3780473768711090,
0.0405834168195724,
-0.0361521877348423,
-0.0438432395458221,
0.0838014706969261,
0.0898899435997009,
-0.0553409121930599,
0.1989044100046158,
-0.0983263254165649,
-0.0499231852591038,
-0.0234740599989891,
-0.0042685810476542,
-0.0374492295086384,
0.0887397229671478,
-0.0301483292132616,
0.0052213012240827,
-0.0331814102828503,
0.0056281494908035,
0.0883995369076729,
0.0412058196961880,
-0.0607179105281830,
-0.1204091906547546,
0.0985407754778862,
0.0252915173768997,
0.0723072960972786,
-0.1293503493070602,
0.0573189519345760,
0.0228607710450888,
-0.0392473004758358,
-0.0901374593377113,
-0.0773844495415688,
-0.0009581561898813,
0.0745764598250389,
-0.1531816869974136,
-0.1524798125028610,
0.0788323804736137,
0.0235422663390636,
-0.0343181863427162,
-0.1206769645214081,
-0.0582631602883339,
-0.1511971205472946,
-0.1896979808807373,
0.1255410760641098,
0.1457066237926483,
-0.1570636183023453,
-0.0557252764701843,
-0.0894037708640099,
0.0254038386046886,
0.0717099457979202,
-0.1751058250665665,
0.0182166732847691,
-0.0127464560791850,
-0.0326948426663876,
-0.1410994082689285,
0.0157721396535635,
0.0124803958460689,
-0.0121497632935643,
0.0087355095893145,
-0.0440096408128738,
-0.0973175913095474,
-0.1259981244802475,
-0.1023023799061775,
-0.0595145747065544,
-0.0909316912293434,
0.0388486534357071,
-0.0753098800778389,
-0.1481684148311615,
0.0518706515431404,
0.0029678666032851,
0.0190423503518105,
0.0838016793131828,
-0.0116330944001675,
0.0177016127854586,
-0.1089650765061378,
0.0081819100305438,
-0.0099797761067748,
0.0005792675656267,
0.0021299794316292,
0.1092560440301895,
0.0371555909514427,
0.0755634233355522,
0.0375133417546749,
0.0757503733038902,
0.0211502611637115,
0.0660135895013809,
0.0093765286728740,
0.0823784619569778,
-0.0709357708692551,
0.0785419493913651,
0.1385453641414642,
-0.0292795412242413,
0.0674261525273323,
-0.0784626826643944,
-0.0874883607029915,
0.0626423731446266,
-0.0573134869337082,
-0.1110448688268661,
0.1917369961738586,
0.0561979003250599,
-0.0834752619266510,
0.0908569917082787,
0.0140019711107016,
-0.0691423937678337,
0.0037373220548034,
0.1013346016407013,
-0.0856136679649353,
-0.0693904459476471,
0.0011359171476215,
-0.1426087319850922,
-0.0612067319452763,
-0.0019270493648946,
-0.0238453913480043,
0.1351808905601501,
-0.1015820056200027,
0.0332852751016617,
0.1808173656463623,
-0.0203253738582134,
0.0447885878384113,
0.0631892532110214,
0.2614686489105225,
0.0394576191902161,
0.0377811044454575,
-0.1343755871057510,
0.0329868532717228,
-0.0701528340578079,
-0.0609133243560791,
-0.0256571471691132,
0.0734881609678268,
0.0666194930672646,
-0.0349059551954269,
0.0947713255882263,
0.1019998863339424,
0.1663513928651810,
-0.0904757231473923,
0.0999792143702507,
0.0799716114997864,
-0.1399610340595245,
0.0147060090675950,
-0.0137422000989318,
-0.1888784617185593,
-0.1171325594186783,
0.0078274467960000,
0.0469090975821018,
-0.0207430459558964,
0.0155585575848818,
-0.0377025082707405,
0.0939348936080933,
0.2427419126033783,
-0.0762472674250603,
0.0622567757964134,
0.2110660076141357,
0.0975038781762123,
0.1852665245532990,
0.1009856313467026,
-0.0918235555291176,
0.0103845642879605,
0.0271291080862284,
0.0105758868157864,
0.1855507642030716,
-0.0938141345977783,
0.0651764050126076,
0.0060129575431347,
0.0396458394825459,
0.0299191009253263,
0.1220516785979271,
-0.0428106561303139,
-0.1155892908573151,
-0.0928555652499199,
0.0028158500790596,
-0.0005101278075017,
-0.1645820587873459,
0.0005514305667020,
-0.1011725887656212,
-0.1371401697397232,
-0.0856901928782463,
-0.0230633560568094,
-0.0093776099383831,
0.0305822715163231,
-0.1288767009973526,
0.0413745976984501,
-0.0807577744126320,
0.0244121663272381,
0.0461296401917934,
0.0522197969257832,
-0.1131233870983124,
-0.1831652671098709,
0.0439522303640842,
-0.1434412598609924,
-0.0689483210444450,
-0.0449151135981083,
-0.1259749978780746,
0.0544970631599426,
0.1420896947383881,
0.0177815835922956,
-0.1087828874588013,
-0.0965214371681213,
-0.0470532439649105,
-0.0094833914190531,
-0.0261785164475441,
-0.0890471562743187,
-0.0964773520827293,
-0.0952297747135162,
0.0460514463484287,
0.0924246087670326,
-0.1594475507736206,
0.0442768037319183,
0.0657745599746704,
-0.0387002080678940,
-0.0149890538305044,
0.0336550734937191,
-0.0796383544802666,
-0.0566063262522221,
-0.1658060103654861,
-0.1342807859182358,
-0.1114640310406685,
-0.0882990509271622,
-0.0647285133600235,
-0.0290047023445368,
-0.4520728290081024,
0.1544360071420670,
-0.1255536526441574,
-0.0658519566059113,
-0.1111943647265434,
-0.1887670010328293,
-0.0227957647293806,
0.0926539748907089,
-0.0159624721854925,
-0.0650150477886200,
-0.0559432134032249,
-0.0742075368762016,
0.0787056460976601,
0.0985471978783607,
0.0991806462407112,
-0.0111170131713152,
-0.0297473873943090,
0.0306541938334703,
0.0711282417178154,
-0.0694221034646034,
0.0196268018335104,
-0.1212592422962189,
0.0982710048556328,
-0.1387865245342255,
0.0944384410977364,
-0.0891850590705872,
-0.1497696191072464,
-0.0616073347628117,
0.0010364813497290,
0.0977757275104523,
-0.0462580211460590,
0.1481730043888092,
-0.0724816843867302,
0.0783785581588745,
-0.0081580616533756,
0.0026934540364891,
-0.1617498546838760,
-0.1312276273965836,
-0.0374175943434238,
-0.0275591798126698,
-0.0366964787244797,
-0.0390259623527527,
0.0646177828311920,
0.0926997512578964,
0.0171547066420317,
-0.1502155661582947,
-0.1101676523685455,
0.0296649429947138,
0.0467079915106297,
-0.0540114417672157,
0.1094834059476852,
0.1451327204704285,
-0.0411816388368607,
-0.1885722726583481,
-0.0237770490348339,
-0.0422217696905136,
0.0753792375326157,
-0.0807879939675331,
0.0742536112666130,
0.0019525637617335,
0.0751037597656250,
0.0747886747121811,
0.0144023774191737,
0.0722174569964409,
-0.0972579941153526,
-0.0221888516098261,
-0.1216785088181496,
0.0050810705870390,
-0.0001535414776299,
-0.0985356494784355,
0.1088965162634850,
-0.0909760296344757,
0.0287203025072813,
0.0495805256068707,
0.0639558061957359,
-0.0970726832747459,
0.1622429490089417,
0.0328501053154469,
-0.1703057438135147,
0.0262604393064976,
0.0110911848023534,
0.0788870230317116,
-0.1630831509828568,
-0.0108827995136380,
-0.0288781523704529,
0.0099985124543309,
-0.0694633573293686,
-0.0314627997577190,
0.0007575209601782,
0.1367246508598328,
-0.0022087302058935,
0.0439700521528721,
0.1243393197655678,
0.1354272216558456,
0.0513561479747295,
0.0741121619939804,
-0.1894464939832687,
-0.0952211692929268,
0.0400282554328442,
0.0951379016041756,
0.0787900462746620,
0.0085974633693695,
0.0782631710171700,
-0.0269463900476694,
-0.0374708957970142,
0.0363491140305996,
0.1149419248104095,
-0.0930466800928116,
-0.0951941385865211,
-0.1155819669365883,
-0.2094743847846985,
0.0752408280968666,
-0.0011199213331565,
-0.1608793288469315,
-0.0708695352077484,
-0.0221659485250711,
0.3226528167724609,
-0.0728530064225197,
-0.0133924158290029,
0.0580725111067295,
-0.0726863145828247,
0.2207602411508560,
-0.1500428915023804,
0.0281417258083820,
-0.2322720736265182,
0.0718932673335075,
0.0368894785642624,
-0.2815292477607727,
0.0398902669548988,
0.0378082431852818,
0.0014500044053420,
-0.0992361381649971,
-0.0678732767701149,
-0.1245831027626991,
-0.1360284686088562,
-0.0319466516375542,
0.1026108488440514,
-0.0074807177297771,
0.0288378112018108,
0.0007275725947693,
-0.0266540106385946,
0.1334555596113205,
-0.0088828001171350,
0.1520339250564575,
-0.0723520293831825,
0.0049944166094065,
-0.1140338554978371,
0.0205240659415722,
-0.0707776546478271,
-0.2300206869840622,
-0.0512854494154453,
-0.1308799386024475,
0.0864376872777939,
0.0769107714295387,
0.0481296814978123,
0.0463073812425137,
0.0808070302009583,
0.0739453956484795,
0.1159919500350952,
-0.0505426824092865,
-0.1475722342729568,
-0.1640890985727310,
-0.1517097055912018,
-0.1268491446971893,
0.0255581289529800,
-0.0945080518722534,
0.0767854750156403,
-0.0256496947258711,
-0.0467732585966587,
-0.0181108489632607,
-0.0678773596882820,
-0.0184932462871075,
0.0090211695060134,
-0.0164116006344557,
-0.1434476226568222,
0.0931605920195580,
0.0154655911028385,
-0.1053134500980377,
-0.1758498251438141,
-0.0598604679107666,
0.1004630029201508,
0.0890726745128632,
-0.0810695439577103,
0.0221403557807207,
-0.1612230837345123,
0.0302438903599977,
-0.1306455880403519,
0.0693438798189163,
-0.0631059482693672,
-0.1248742341995239,
-0.0886425301432610,
-0.1181985661387444,
-0.0958055406808853,
-0.1501696854829788,
-0.0381682366132736,
0.0407415516674519,
-0.0024853965733200,
-0.1240312084555626,
0.0618009902536869,
-0.0689960420131683,
-0.0334512814879417,
-0.1541466712951660,
-0.0659861043095589,
0.0101807983592153,
0.0837727934122086,
-0.0571311786770821,
-0.1663467288017273,
-0.0851050168275833,
-0.0187886208295822,
0.0606876090168953,
-0.0486921370029449,
-0.0331322476267815,
-0.1128500774502754,
-0.0400735586881638,
-0.0930821597576141,
-0.0416584461927414,
0.0204935073852539,
0.0692327395081520,
0.0442668870091438,
-0.0899586528539658,
0.0586869269609451,
0.0386569127440453,
0.1098570972681046,
0.0154859041795135,
-0.1548089683055878,
-0.0004141639801674,
-0.0710994824767113,
-0.0357184335589409,
-0.0037422459572554,
0.0575061552226543,
0.0295708291232586,
-0.1101545318961143,
-0.1094062998890877,
0.1197971850633621,
0.0467850007116795,
0.0018324567936361,
0.0465444251894951,
-0.0492192842066288,
-0.1474001854658127,
0.0462147071957588,
-0.0656757056713104,
-0.0388568565249443,
-0.1284202933311462,
0.0689599215984344,
0.0523815266788006,
0.0915779992938042,
-0.0110362637788057,
-0.0645082145929337,
0.1225183382630348,
0.0804795548319817,
-0.0815818607807159,
0.0656757727265358,
-0.1019327193498611,
0.1608820259571075,
-0.0982439294457436,
0.1016070693731308,
-0.0890183523297310,
-0.0578143186867237,
0.0169424284249544,
-0.1047407239675522,
-0.0632662251591682,
-0.1105019077658653,
-0.0581092424690723,
0.0286202840507030,
-0.0079691112041473,
0.1071372330188751,
-0.0249069184064865,
0.0438450649380684,
-0.0522199906408787,
-0.1049116626381874,
-0.0174933727830648,
0.1231956630945206,
0.1220859587192535,
0.1347320377826691,
-0.0188957750797272,
-0.0249759797006845,
0.0191104263067245,
-0.1929594874382019,
-0.1548754274845123,
0.0745947062969208,
-0.0306830573827028,
0.0264238361269236,
-0.1100021600723267,
-0.0844556614756584,
0.0815948173403740,
0.0098710954189301,
-0.0519950203597546,
0.1337170600891113,
-0.0174452178180218,
-0.1135660111904144,
0.0385452285408974,
0.0335566997528076,
0.0910295099020004,
-0.0746105238795280,
-0.2895461916923523,
-0.0844043046236038,
0.1040909215807915,
0.0361620634794235,
-0.0495231077075005,
0.0051531232893467,
-0.1174276694655418,
-0.1517130434513092,
-0.0709024593234062,
-0.0306657012552023,
-0.0925418660044670,
0.1048560440540314,
0.0183217935264111,
-0.0626593604683876,
0.1254978328943253,
-0.0639069974422455,
-0.1860016137361526,
0.0427846908569336,
-0.0213821567595005,
-0.0547079779207706,
-0.0604168325662613,
-0.0467726737260818,
-0.0626268535852432,
-0.0145748788490891,
0.0373234190046787,
0.0252404231578112,
-0.0991128310561180,
-0.1124726310372353,
-0.0321411117911339,
-0.0675114169716835,
0.0123997516930103,
-0.1153105944395065,
0.0001702425943222,
-0.1325731724500656,
-0.0888619646430016,
-0.0146019356325269,
0.0400960184633732,
-0.0925472229719162,
-0.0038478253409266,
0.0577514246106148,
-0.0079410905018449,
0.1041043773293495,
0.0655171424150467,
-0.0376773439347744,
0.0236049890518188,
-0.1420630365610123,
0.0945742204785347,
-0.0603623986244202,
-0.0842111334204674,
0.1407782584428787,
0.1242397651076317,
-0.0702851489186287,
-0.0298186410218477,
0.0426882095634937,
0.0904517546296120,
-0.1098926439881325,
-0.1124799400568008,
0.1227239221334457,
-0.0801500976085663,
0.0166325177997351,
-0.0988026037812233,
0.0072083747945726,
-0.0637386143207550,
-0.1579994857311249,
0.1129249930381775,
-0.1573471128940582,
-0.0656969472765923,
0.0709355175495148,
-0.0738726705312729,
-0.0540907606482506,
0.0483633130788803,
-0.0374654494225979,
0.0475411824882030,
0.0742905288934708,
0.0437186323106289,
0.0267109796404839,
-0.1345383226871490,
0.0208930503576994,
-0.0104692000895739,
-0.0625922530889511,
0.0481696948409081,
0.0127909388393164,
-0.0356151610612869,
0.0953153893351555,
-0.0041700000874698,
0.0682492479681969,
0.0183483753353357,
-0.0096613233909011,
-0.0162356793880463,
-0.0161728784441948,
-0.0968651324510574,
0.0397842973470688,
0.0664112940430641,
-0.0158028118312359,
0.0290905218571424,
0.0104550467804074,
0.0118032451719046,
-0.1266493052244186,
0.0776975974440575,
0.0553703829646111,
-0.0254796836525202,
-0.1447889953851700,
0.0565689057111740,
-0.0457970611751080,
-0.0778029337525368,
-0.1172957941889763,
0.0347860045731068,
-0.0385837405920029,
0.0030272705480456,
0.0636114031076431,
-0.1281805038452148,
-0.1018420681357384,
0.1727313846349716,
-0.1060373187065125,
0.0401923842728138,
0.1118735969066620,
0.0028529365081340,
0.0212118476629257,
-0.0197163950651884,
0.1455692797899246,
-0.0712311044335365,
-0.1251714229583740,
-0.0390822663903236,
0.0800677910447121,
0.0225300416350365,
-0.0254604797810316,
-0.0075850072316825,
-0.0510139986872673,
0.0783722624182701,
-0.0763582140207291,
-0.0352067165076733,
-0.0240442752838135,
0.0956475958228111,
-0.0279442891478539,
0.0748793110251427,
-0.0744455158710480,
-0.1371602714061737,
-0.1298516243696213,
-0.0484548583626747,
0.1085698157548904,
-0.1610436588525772,
0.0223922673612833,
-0.0530229322612286,
0.0578574314713478,
-0.0151994880288839,
-0.1299044191837311,
0.0735212787985802,
0.0689932852983475,
-0.0220083240419626,
-0.0792415961623192,
0.0656343325972557,
0.0649982169270515,
0.0897247716784477,
0.0322625227272511,
0.0298092179000378,
-0.0447007231414318,
0.0580854229629040,
-0.0651215836405754,
0.0618265755474567,
-0.1227307096123695,
0.0665137022733688,
-0.1494738161563873,
-0.1197511255741119,
0.0484487935900688,
-0.0297360587865114,
0.0544423870742321,
0.0559565685689449,
-0.0713707953691483,
-0.1980915814638138,
0.1040379106998444,
-0.0525837503373623,
-0.0006298302905634,
0.0030349567532539,
-0.0203573368489742,
0.0648044049739838,
0.0258830990642309,
-0.0498261488974094,
-0.0792969614267349,
0.0748869702219963,
0.0035126651637256,
0.0315392650663853,
-0.0208204183727503,
-0.0983728244900703,
0.0433101989328861,
-0.0336248129606247,
0.0807950720191002,
-0.0911309272050858,
-0.0777976587414742,
-0.0464903078973293,
0.0270356535911560,
-0.1299654543399811,
-0.0312622338533401,
0.1878665089607239,
-0.0281520728021860,
0.0433396324515343,
0.0999692529439926,
0.0190013498067856,
0.0473324768245220,
-0.1070826053619385,
-0.0668135136365891,
-0.3716786801815033,
0.0604252889752388,
-0.0419104844331741,
-0.0170387309044600,
-0.1817380040884018,
0.0193068888038397,
-0.0030737384222448,
-0.0109955333173275,
-0.2577198743820190,
0.1016633808612823,
0.0018662931397557,
-0.0036969177890569,
0.0013573042815551,
0.0889641344547272,
0.0782613158226013,
-0.0659540742635727,
-0.0787691920995712,
0.1163853630423546,
-0.0120206801220775,
0.0813594013452530,
-0.0772798135876656,
0.0387368053197861,
-0.0760120525956154,
-0.0472650825977325,
-0.1354026049375534,
-0.0768188983201981,
-0.0602243356406689,
-0.0512695163488388,
-0.1191806122660637,
0.0314435623586178,
0.0282726213335991,
0.0757736191153526,
-0.1274195611476898,
-0.0213255584239960,
0.0255717970430851,
0.1212119832634926,
-0.0061513287946582,
-0.1622446477413177,
-0.1089601367712021,
-0.0717206448316574,
0.0014195394469425,
0.0579754300415516,
0.0598599873483181,
0.1098560169339180,
0.0422733314335346,
-0.1032622680068016,
-0.1672569364309311,
0.0181489475071430,
-0.0381799377501011,
0.1289367079734802,
-0.0735645517706871,
-0.0577297061681747,
-0.0608712658286095,
-0.0385354012250900,
-0.0678207352757454,
-0.0824699029326439,
0.0466546453535557,
-0.0591533593833447,
0.0305648148059845,
-0.0700436905026436,
0.0334853157401085,
-0.0608448274433613,
0.1699522286653519,
0.0677772238850594,
-0.1743263006210327,
-0.0026993816718459,
-0.0653268098831177,
0.1238670572638512,
-0.0971395075321198,
0.0689485743641853,
-0.1015243604779243,
-0.0783839672803879,
-0.1062782928347588,
-0.0826475992798805,
0.0957479253411293,
-0.0817905366420746,
0.0214492548257113,
-0.1437320858240128,
-0.1806016266345978,
0.0719742923974991,
0.0881119072437286,
0.0152420308440924,
-0.0590827837586403,
-0.0401252508163452,
-0.0518808811903000,
-0.1259910613298416,
0.0019520240603015,
0.0346799381077290,
0.0485217906534672,
-0.1360561847686768,
0.1195725500583649,
0.0492801517248154,
0.0737459957599640,
-0.0132999839261174,
-0.0814822018146515,
-0.0591309592127800,
-0.1662115603685379,
0.0466069430112839,
0.0057844994589686,
0.1144607514142990,
-0.0733964592218399,
0.0551308356225491,
0.0855284184217453,
-0.0310473535209894,
-0.2637696266174316,
-0.1268100887537003,
-0.0311069041490555,
-0.0092859109863639,
-0.0456976033747196,
-0.0257428474724293,
0.0144460555166006,
0.0456668511033058,
0.0593649111688137,
0.0026210129726678,
-0.0307353064417839,
-0.0708026960492134,
0.0446871407330036,
-0.0111160799860954,
0.1257570981979370,
-0.0576216578483582,
0.0268300920724869,
-0.1050437912344933,
0.0025739860720932,
0.1036396920681000,
0.0770752504467964,
0.0866822078824043,
-0.0515622682869434,
-0.0634710565209389,
-0.2463051825761795,
-0.2173549830913544,
0.0024598913732916,
-0.1766653358936310,
-0.3930371403694153,
-0.2748499512672424,
0.0779294371604919,
0.0522902123630047,
0.0249475613236427,
0.0389607585966587,
0.0388920232653618,
0.0015624144580215,
-0.1684754043817520,
0.0471095703542233,
-0.0878622457385063,
-0.1157548502087593,
-0.1721143275499344,
-0.1110406145453453,
0.0174294654279947,
0.0953289717435837,
-0.1451115161180496,
0.0296342466026545,
0.0379028692841530,
-0.1187560930848122,
-0.0195320378988981,
-0.2610478997230530,
-0.0123936291784048,
0.0205895602703094,
0.1979840099811554,
-0.1089967489242554,
-0.0373348668217659,
0.1515214592218399,
0.0566084943711758,
-0.0053855846635997,
-0.0523541867733002,
0.1220697760581970,
-0.0586205422878265,
0.1636868119239807,
-0.0101130269467831,
-0.1403505057096481,
-0.1058438718318939,
-0.1421356201171875,
0.0388702489435673,
0.1264627575874329,
-0.0516354441642761,
-0.1449037939310074,
0.0303146708756685,
0.0167324934154749,
0.0301569271832705,
0.0748813301324844,
-0.0924418196082115,
-0.0194844249635935,
0.0636650174856186,
-0.0049884384498000,
-0.0471652559936047,
-0.0541770532727242,
0.0906953513622284,
-0.2018332630395889,
0.0692937821149826,
-0.0323348939418793,
0.1028584912419319,
-0.0580459088087082,
-0.1333752721548080,
-0.0668998062610626,
-0.2821603417396545,
0.0889704450964928,
-0.0379562266170979,
0.0216739419847727,
-0.2710916996002197,
0.1353814750909805,
-0.0610115826129913,
0.1390589922666550,
-0.0153174893930554,
-0.0183038488030434,
-0.0766228139400482,
0.0373407788574696,
-0.1154835671186447,
0.1193272843956947,
-0.1623426675796509,
-0.0860018581151962,
-0.0602524504065514,
0.0364040918648243,
0.0019604645203799,
0.0575177967548370,
0.0183050855994225,
0.0307243298739195,
-0.0798241868615150,
-0.0200185868889093,
-0.0983900576829910,
-0.0877560824155807,
-0.0770052969455719,
-0.0214085876941681,
-0.0637367144227028,
0.0537389069795609,
-0.0257211029529572,
-0.0755718797445297,
-0.1987689733505249,
0.0269406456500292,
-0.0689042061567307,
-0.0032642451114953,
-0.2177603989839554,
0.0329485870897770,
-0.0565585456788540,
0.0308151058852673,
-0.0975915566086769,
-0.0553811267018318,
0.0611647628247738,
-0.0198726374655962,
-0.1255623996257782,
-0.1447689831256866,
0.0709354430437088,
-0.0062374747358263,
0.0726123154163361,
0.0859518945217133,
-0.0838060379028320,
-0.0298936460167170,
-0.0202747061848640,
0.0304269529879093,
0.0398074351251125,
-0.0684434175491333,
0.0010338923893869,
-0.0507269985973835,
0.0710212513804436,
0.0621321909129620,
0.0341775938868523,
-0.0993929803371429,
-0.0440053902566433,
-0.0861269161105156,
-0.2042333483695984,
-0.0499047972261906,
0.0282612666487694,
0.1816269755363464,
-0.0579315423965454,
0.0425516925752163,
0.0782435908913612,
0.1375342756509781,
-0.2398685812950134,
0.1161503344774246,
0.0476208068430424,
-0.0776645988225937,
-0.0434240438044071,
0.0227487124502659,
-0.0375978015363216,
0.1162834987044334,
-0.0559712201356888,
0.0816602334380150,
-0.0929158255457878,
-0.0357958152890205,
-0.0065527195110917,
-0.0652179494500160,
-0.1283519566059113,
-0.0060091596096754,
-0.0211090296506882,
-0.1825011819601059,
-0.0767832025885582,
0.1048580855131149,
0.0631376653909683,
0.0501351505517960,
-0.1836543679237366,
-0.1055982559919357,
-0.1451340168714523,
0.1447935402393341,
0.0471051819622517,
0.1785621643066406,
-0.1598119288682938,
0.0421109907329082,
0.1010849848389626,
-0.0461710356175900,
-0.2752677798271179,
-0.0332345739006996,
-0.0681692436337471,
0.0650904700160027,
-0.0071021639741957,
-0.0365409627556801,
0.0225620735436678,
-0.1496530324220657,
0.1656913012266159,
0.2707453966140747,
-0.0814622193574905,
-0.1596644967794418,
-0.0290179364383221,
-0.1253002732992172,
-0.0390907637774944,
-0.1018579676747322,
0.0136400284245610,
0.0318789295852184,
0.1175920665264130,
-0.0016346917254850,
-0.0557230748236179,
0.0495396889746189,
-0.1147078499197960,
-0.0854512974619865,
-0.0191972889006138,
-0.0037758830003440,
-0.1122775152325630,
-0.0101189967244864,
-0.1485328972339630,
0.0361832305788994,
-0.1775098145008087,
-0.0117508498951793,
-0.0287817064672709,
0.0587960556149483,
-0.1365318745374680,
-0.1418562829494476,
-0.0096083804965019,
-0.0546010807156563,
-0.1240505203604698,
-0.0402113124728203,
0.0915069878101349,
-0.0527028888463974,
-0.0617382153868675,
-0.0639924556016922,
0.0314158163964748,
-0.1075854375958443,
0.0509762689471245,
-0.1328784972429276,
0.0446303449571133,
-0.0547953210771084,
-0.0089575164020061,
-0.0247795898467302,
0.1279113292694092,
-0.1363721936941147,
-0.0708677694201469,
-0.0974365025758743,
-0.1429312378168106,
-0.0248092021793127,
-0.0484391190111637,
0.1858190000057220,
-0.2042384594678879,
0.0261337496340275,
0.1366349756717682,
-0.0350894182920456,
-0.0770475491881371,
0.1658761501312256,
0.0951640903949738,
0.0204956065863371,
-0.0829909816384315,
0.0885841250419617,
0.1322436779737473,
0.1283739954233170,
0.0469342060387135,
0.1636823713779449,
-0.0332730524241924,
-0.0968549996614456,
-0.0481202341616154,
0.0153302457183599,
-0.0759494900703430,
0.0769904553890228,
-0.0118271941319108,
-0.0607134886085987,
0.0974353924393654,
0.1104814931750298,
-0.0392821393907070,
0.0582173652946949,
-0.0468572154641151,
0.0718500986695290,
-0.0840472504496574,
0.0918881371617317,
0.0022121500223875,
0.0936164483428001,
0.0334652066230774,
0.0765345990657806,
-0.1329198032617569,
0.0267202947288752,
-0.1737775951623917,
-0.1965631097555161,
0.0047039878554642,
0.1359639614820480,
0.0185660384595394,
0.0468200668692589,
-0.0744725540280342,
-0.0187259819358587,
-0.0038338976446539,
0.1861805915832520,
-0.1460221558809280,
0.0530701801180840,
-0.0677625313401222,
0.0489300712943077,
-0.0530567094683647,
0.0169285424053669,
0.1443635672330856,
-0.0000395705283154,
0.1128156110644341,
0.0844940021634102,
-0.0373970605432987,
-0.0382783338427544,
0.0637934207916260,
-0.0725242793560028,
-0.1520293056964874,
-0.1110188290476799,
-0.0478219911456108,
-0.1135040223598480,
-0.0809313058853149,
-0.1027163192629814,
-0.0496889539062977,
-0.1089318767189980,
-0.1296938508749008,
0.0432069413363934,
0.0815628394484520,
0.0293615460395813,
0.0482891574501991,
-0.1184716075658798,
0.1873298287391663,
0.1107277497649193,
-0.0929874330759048,
-0.0675894469022751,
0.0277212448418140,
-0.1331460922956467,
0.0431464128196239,
0.0210144966840744,
-0.0025044875219464,
-0.0124126393347979,
-0.0812045484781265,
0.0368736758828163,
-0.0762970298528671,
-0.0068771345540881,
0.0144080528989434,
-0.0353732407093048,
-0.0877538770437241,
-0.0718026086688042,
-0.0789987072348595,
0.0494638644158840,
-0.0143760181963444,
0.1016674414277077,
-0.0811768844723701,
-0.0196441281586885,
-0.0412122569978237,
-0.1849177926778793,
-0.0404911376535892,
-0.0633191913366318,
-0.0200377088040113,
-0.0230944380164146,
0.0420442484319210,
-0.0843178704380989,
-0.0235252045094967,
0.0210922714322805,
0.0610890313982964,
0.0848330929875374,
0.0801697894930840,
0.0147784836590290,
-0.1590562611818314,
0.0608058087527752,
-0.0057471594773233,
-0.0737278610467911,
0.0436544455587864,
-0.0088719148188829,
-0.0393993183970451,
0.0258890073746443,
0.0358833484351635,
-0.0043849539943039,
-0.0625203102827072,
-0.0365620963275433,
-0.0675160065293312,
0.0168303195387125,
-0.1471354067325592,
0.0231991279870272,
-0.0609412975609303,
-0.0655128359794617,
0.0208342224359512,
0.1266122907400131,
0.0414922386407852,
-0.0972013026475906,
0.0237362440675497,
0.0218171961605549,
0.0875688493251801,
-0.0201015137135983,
-0.1100794449448586,
0.0974449142813683,
-0.3106784820556641,
0.0097141889855266,
-0.1123109608888626,
-0.0223188139498234,
0.0724854394793510,
-0.0221291705965996,
-0.1238697692751884,
-0.1162837818264961,
0.0265036709606647,
0.0083903856575489,
0.0754881277680397,
-0.0236988086253405,
0.0740958005189896,
-0.0388517677783966,
-0.0285006538033485,
0.0020088457968086,
0.1797718405723572,
0.1321241259574890,
-0.0470750816166401,
0.0474827550351620,
-0.4346450865268707,
0.0729585289955139,
-0.1308612674474716,
-0.0397425740957260,
-0.0866438969969749,
0.0981818512082100,
-0.1740389466285706,
0.0933906361460686,
0.0241547562181950,
0.0649145022034645,
-0.0565915144979954,
-0.0528041496872902,
-0.1139824166893959,
0.1986825168132782,
0.0036300965584815,
-0.1034573540091515,
-0.0780074596405029,
-0.0500864610075951,
-0.0791944786906242,
0.0435848310589790,
-0.0520111247897148,
-0.1179958581924438,
-0.1191543787717819,
-0.0007342567550950,
-0.1992940455675125,
0.0343063436448574,
-0.0172572564333677,
0.0170764774084091,
-0.0939750298857689,
-0.0169511456042528,
-0.1309400051832199,
-0.0359214134514332,
-0.0023026105482131,
-0.0221354253590107,
-0.0425428934395313,
-0.0178674273192883,
-0.1477776765823364,
0.1186622083187103,
0.0096456008031964,
0.0329916402697563,
0.0179177299141884,
-0.0370914973318577,
-0.0402385182678699,
-0.0242741182446480,
-0.0218095965683460,
-0.0600294619798660,
-0.1297692805528641,
-0.0795809328556061,
-0.0463477484881878,
-0.1518090665340424,
0.0198792032897472,
0.0780318975448608,
-0.0442053750157356,
0.0254122149199247,
-0.1400181353092194,
-0.1218136250972748,
-0.1680742651224136,
-0.1091150715947151,
0.0121868504211307,
0.0565825328230858,
0.0392064340412617,
0.0128371277824044,
-0.0540689155459404,
-0.0210391227155924,
0.1265562176704407,
0.0706103965640068,
0.0395530313253403,
-0.1728555411100388,
0.0942087918519974,
-0.0010339183500037,
0.0286523029208183,
0.0416897423565388,
0.0047443867661059,
-0.1320959925651550,
0.1168679744005203,
0.0723879262804985,
-0.0233761630952358,
-0.0442967265844345,
-0.0947859957814217,
-0.0436873212456703,
-0.0452591925859451,
0.0594149045646191,
0.0891925841569901,
-0.0330171361565590,
0.0779933184385300,
0.0092790778726339,
0.0040219053626060,
-0.0767745301127434,
-0.0109644802287221,
-0.0391821227967739,
-0.0061142309568822,
0.0407015308737755,
0.0202697254717350,
0.0209258254617453,
0.1207102164626122,
-0.0716463923454285,
-0.0834835469722748,
0.0025379061698914,
-0.0374992676079273,
0.0893781036138535,
-0.0682781785726547,
0.0459079369902611,
-0.0370331928133965,
0.0539956949651241,
-0.0940729752182961,
0.0661896020174026,
0.0820759534835815,
0.0493101924657822,
0.0653071403503418,
-0.1932897567749023,
-0.0410738736391068,
0.0848065540194511,
0.0878901928663254,
-0.0012330007739365,
0.0375465564429760,
-0.0202316194772720,
0.1130864992737770,
-0.0344288088381290,
-0.1602743417024612,
-0.0094593847170472,
0.0202559027820826,
0.0462767295539379,
-0.0733693018555641,
-0.1014283671975136,
-0.1368413269519806,
0.0986246690154076,
0.0636395290493965,
0.0551667772233486,
0.1699045896530151,
0.0000189099737327,
-0.1915185302495956,
-0.0750113204121590,
0.1813547313213348,
0.1068264096975327,
0.0909344628453255,
0.0173951108008623,
-0.0474622696638107,
-0.0993712395429611,
0.0746159106492996,
-0.0291072521358728,
0.0613388568162918,
0.1765310764312744,
-0.1783954203128815,
-0.0192659553140402,
0.0349663980305195,
-0.1267928183078766,
0.1214026138186455,
0.0006412983639166,
-0.2905003428459167,
0.1708798110485077,
-0.0099059008061886,
-0.2931492924690247,
-0.0600665174424648,
-0.1095287874341011,
-0.0870136097073555,
0.1881875991821289,
-0.1645702272653580,
-0.0110648060217500,
-0.0790965408086777,
-0.0041758734732866,
-0.0320197343826294,
-0.0499347150325775,
-0.0808532536029816,
-0.0579824298620224,
0.0093970475718379,
0.0324861891567707,
-0.0590050667524338,
0.0638799071311951,
-0.0382940098643303,
-0.0317943133413792,
0.1075028404593468,
0.0328313969075680,
0.0355918705463409,
0.0102411257103086,
-0.0450134202837944,
-0.0935974344611168,
0.0652153640985489,
-0.0724351555109024,
0.0407016687095165,
0.0347485877573490,
-0.1023662164807320,
-0.0973735079169273,
-0.1299548000097275,
-0.0059439647011459,
0.0597057528793812,
0.0154172359034419,
0.0488695725798607,
-0.1763529032468796,
0.0683269798755646,
-0.1397085189819336,
0.1148613542318344,
0.1033727154135704,
-0.0847482979297638,
0.0144468741491437,
-0.1340648829936981,
0.0940263792872429,
-0.0471740402281284,
0.0621634572744370,
-0.0175880007445812,
0.0991539508104324,
0.0287768356502056,
0.0807641148567200,
-0.0211054626852274,
-0.0957824513316154,
-0.1422758847475052,
-0.0714203640818596,
0.0100739644840360,
0.0437423996627331,
0.0051951254718006,
-0.0693582519888878,
-0.1027135625481606,
0.0205953679978848,
-0.0594538189470768,
-0.1715361773967743,
-0.1104621738195419,
-0.0111214313656092,
-0.1022748798131943,
-0.1012795194983482,
0.0104550588876009,
-0.0183739457279444,
-0.1033677011728287,
0.0275070611387491,
-0.0974036306142807,
-0.2201676368713379,
-0.1474106609821320,
-0.1359235644340515,
-0.0214965287595987,
-0.0685990899801254,
-0.0193279013037682,
-0.0524882040917873,
0.0773377716541290,
0.1027911230921745,
-0.0297922808676958,
-0.0198847465217113,
0.0354777649044991,
0.0561994798481464,
0.1457791328430176,
-0.0140546914190054,
-0.0264613702893257,
-0.0535192117094994,
-0.0447017624974251,
0.0743929073214531,
-0.0096453288570046,
-0.1539536714553833,
0.0434445589780807,
-0.2044549733400345,
-0.0830741748213768,
-0.0257108807563782,
0.0192696657031775,
-0.1206674799323082,
0.0699912086129189,
-0.1292221546173096,
0.0029699520673603,
-0.0091576687991619,
-0.0779590383172035,
-0.1374323964118958,
0.0441489331424236,
-0.0195464584976435,
-0.0299764685332775,
-0.0168194156140089,
0.0565252266824245,
0.0372196994721889,
-0.0235603284090757,
-0.0699271783232689,
-0.0372485928237438,
-0.0001539207733003,
0.0760373175144196,
-0.1118433251976967,
0.0246490612626076,
-0.2182054221630096,
0.1541871875524521,
0.0520930923521519,
-0.1138983890414238,
0.0453163459897041,
-0.0108423782512546,
-0.0041426876559854,
0.1331748813390732,
-0.2005957812070847,
-0.1114895418286324,
-0.0114154918119311,
0.0217492450028658,
-0.1319609582424164,
0.0601883418858051,
-0.0898463800549507,
0.0530675016343594,
0.0011072292691097,
0.0472312010824680,
0.0962680205702782,
0.0300764795392752,
0.0708187371492386,
0.0371659584343433,
-0.0886178463697433,
-0.0093898437917233,
-0.0100524853914976,
0.0059533948078752,
-0.0521201044321060,
0.0073866704478860,
-0.0533680580556393,
0.0654961019754410,
0.1611750125885010,
0.0290997810661793,
-0.1173926293849945,
0.0105069810524583,
-0.0535257868468761,
-0.1256315261125565,
0.0241585969924927,
0.0671422928571701,
-0.1440255045890808,
-0.0697395130991936,
-0.0034443619661033,
-0.1369606256484985,
0.0923912078142166,
0.0940258204936981,
-0.0509402193129063,
-0.0705683082342148,
-0.2103913426399231,
-0.0638781711459160,
-0.0227120611816645,
0.0217037592083216,
-0.0539883263409138,
-0.0199851077049971,
-0.0908552631735802,
0.0286901239305735,
-0.1580088287591934,
-0.0247825421392918,
0.0043089636601508,
0.1422215849161148,
0.0666218176484108,
0.0380950346589088,
-0.1384452730417252,
0.0507767982780933,
0.1092513725161552,
0.0779170542955399,
0.0410180501639843,
-0.1072074994444847,
-0.0641232132911682,
0.0007599503151141,
-0.0606268271803856,
-0.1637515574693680,
0.0743470042943954,
-0.1014027297496796,
-0.0224199648946524,
0.0409287698566914,
-0.0608843527734280,
0.0293812267482281,
0.0142670851200819,
-0.2250833064317703,
0.0060067079029977,
-0.0479383170604706,
-0.0791309922933578,
0.1094244047999382,
0.0244325026869774,
-0.1434534341096878,
-0.1781809478998184,
-0.0184669513255358,
-0.0504277497529984,
0.0327699221670628,
-0.0561683475971222,
0.0267091859132051,
-0.0551774129271507,
-0.1186586394906044,
-0.0487673096358776,
0.0119022876024246,
0.0576835013926029,
0.1088352650403976,
-0.1572330147027969,
-0.0098633244633675,
0.1040082126855850,
-0.0017829347634688,
-0.0523257590830326,
-0.1020193994045258,
-0.0850244760513306,
0.1770352125167847,
-0.1569679677486420,
-0.0992773473262787,
0.0532363317906857,
0.0565586872398853,
-0.1228881925344467,
0.1217778325080872,
0.0481936633586884,
-0.0267287697643042,
-0.0642341896891594,
-0.0020510239992291,
0.0734996646642685,
-0.0481807887554169,
-0.0497997775673866,
-0.0247610881924629,
0.0096842776983976,
0.0943443328142166,
0.0751479268074036,
-0.0635403096675873,
0.1644038558006287,
-0.0258608832955360,
-0.0015036000404507,
-0.0194536875933409,
0.0141446264460683,
-0.0079295253381133,
-0.0428446345031261,
-0.0239603966474533,
-0.0864055156707764,
0.0713692754507065,
-0.0456089861690998,
0.0513254702091217,
0.0043313936330378,
-0.0662910193204880,
-0.0788489207625389,
-0.0974677503108978,
-0.1124918311834335,
-0.0132434433326125,
-0.1155513375997543,
-0.1371449977159500,
0.0469597838819027,
0.0824202373623848,
-0.0084268134087324,
0.0703209862112999,
-0.2189028412103653,
-0.0085318237543106,
-0.0356893874704838,
-0.0862098634243011,
-0.0263932216912508,
0.1837983280420303,
0.0070264460518956,
-0.1189023405313492,
-0.0400200374424458,
-0.0932302027940750,
-0.0430581122636795,
0.2515308260917664,
0.0173498895019293,
0.0838764309883118,
-0.1196315959095955,
0.0162367988377810,
-0.0093566477298737,
-0.0045891385525465,
-0.1215726062655449,
0.0941338390111923,
-0.1100233793258667,
0.1351489871740341,
-0.0030710534192622,
0.0080273235216737,
0.0651540979743004,
0.1174978837370872,
-0.1197912022471428,
-0.1028411611914635,
-0.0290535818785429,
-0.0313135087490082,
0.0876431986689568,
-0.1212989166378975,
-0.2663699984550476,
-0.1653911024332047,
-0.0650036633014679,
-0.0975784063339233,
-0.0085025308653712,
0.0525063313543797,
-0.0251209195703268,
0.0141426278278232,
0.0371143110096455,
-0.0582373328506947,
0.0466766990721226,
0.1239147037267685,
0.1240949258208275,
0.0372792929410934,
-0.1513680964708328,
0.0653326511383057,
-0.0892008766531944,
-0.1007905900478363,
-0.1086974740028381,
0.0485314428806305,
-0.0837408751249313,
-0.1919893920421600,
-0.0230578742921352,
-0.0758168399333954,
-0.1243849098682404,
0.1191576123237610,
-0.1190662309527397,
-0.0521638952195644,
0.0416555441915989,
0.0714614167809486,
-0.0168774649500847,
-0.0454047098755836,
-0.1547636240720749,
-0.0241793096065521,
-0.0335336253046989,
-0.0226318892091513,
0.0672960579395294,
-0.0269935466349125,
0.0874843671917915,
-0.0128161814063787,
0.0990102067589760,
-0.0497379712760448,
-0.1217889487743378,
-0.0384611561894417,
-0.0229789316654205,
-0.0290410034358501,
0.0695380866527557,
0.1157683059573174,
0.0648530349135399,
-0.1298519223928452,
-0.0624540671706200,
-0.0068355398252606,
-0.1096114441752434,
0.0299919117242098,
-0.1370668560266495,
-0.1262366026639938,
-0.1321796923875809,
-0.0516922771930695,
-0.0319998301565647,
-0.1707433462142944,
-0.0532467104494572,
0.0918993204832077,
-0.0005328005645424,
-0.1278145015239716,
0.0207361225038767,
-0.0398407652974129,
-0.1163068711757660,
0.1761071532964706,
-0.0907594934105873,
0.0339905172586441,
-0.0148782627657056,
-0.0926923155784607,
-0.2108377516269684,
-0.0906041190028191,
-0.0605376213788986,
-0.0300772618502378,
-0.0776831209659576,
-0.0260898899286985,
-0.2836505770683289,
0.1469655632972717,
0.1647574901580811,
-0.1182002648711205,
-0.1064751371741295,
0.1270823776721954,
0.0132604418322444,
-0.0342153683304787,
0.0543725714087486,
-0.1275310218334198,
-0.1714443266391754,
0.0551483258605003,
-0.0002022703993134,
-0.1553673297166824,
-0.0180823076516390,
0.1500896513462067,
0.0584844537079334,
0.0046491646207869,
-0.1828487515449524,
-0.0462514571845531,
-0.1712416857481003,
0.0235975291579962,
-0.0314524061977863,
0.0910155475139618,
-0.0024045063182712,
-0.0986407697200775,
-0.1242542117834091,
-0.1482691317796707,
0.0436698608100414,
-0.0725587233901024,
-0.1189852580428123,
0.0969351604580879,
-0.0646513924002647,
0.0074232104234397,
0.0231949575245380,
-0.1441166400909424,
-0.0537817217409611,
0.0454673171043396,
-0.1079089716076851,
0.0190369170159101,
-0.2149355113506317,
0.0954568758606911,
-0.1232776865363121,
-0.0596221722662449,
-0.0709387212991714,
-0.0186452884227037,
-0.0520678944885731,
0.0078507587313652,
0.0925563275814056,
0.0846312046051025,
0.0410997904837132,
-0.2188740968704224,
-0.1051860153675079,
0.0878261253237724,
-0.0917082652449608,
-0.0268771797418594,
-0.1335949599742889,
0.0430164970457554,
-0.0812827125191689,
-0.0276061501353979,
0.0016747018089518,
-0.0034554235171527,
-0.0276196599006653,
0.0496966317296028,
-0.0567919723689556,
0.0311401728540659,
-0.1039291322231293,
-0.1230331808328629,
0.0901742205023766,
0.0019376217387617,
-0.1184930726885796,
-0.0138285374268889,
-0.2019229680299759,
0.0651570111513138,
-0.1287211626768112,
-0.0747319161891937,
0.0320827178657055,
-0.0634203329682350,
0.0408232510089874,
0.0683002993464470,
-0.0524623617529869,
-0.0074521284550428,
-0.0341256521642208,
-0.0563289485871792,
-0.0331911332905293,
0.0738978162407875,
0.0934566259384155,
0.0972678139805794,
-0.0106331910938025,
-0.0243828464299440,
-0.0169344954192638,
0.0386167578399181,
0.1022280678153038,
-0.0104829184710979,
0.0710342079401016,
0.0846222341060638,
-0.1147703155875206,
-0.0355381183326244,
-0.1190556585788727,
-0.0175435002893209,
0.0779374614357948,
0.0176706984639168,
-0.0196214988827705,
-0.0035696716513485,
-0.0469221137464046,
-0.1717217117547989,
-0.0143438866361976,
0.0473843589425087,
0.0374875813722610,
-0.0136378416791558,
-0.0333680547773838,
0.0156251117587090,
-0.0472643226385117,
0.0898204818367958,
0.0949240103363991,
0.1237286403775215,
0.0959934294223785,
0.3408004343509674,
-0.1293331682682037,
0.0484058149158955,
-0.0398832671344280,
-0.0087357647716999,
0.0655670464038849,
0.0607844032347202,
0.0091834105551243,
0.1056564375758171,
-0.0474378652870655,
-0.0033268658444285,
0.1559557318687439,
-0.2006510347127914,
-0.0019838805310428,
0.0361161679029465,
0.0481039360165596,
0.0567843019962311,
0.0379133038222790,
0.0253168698400259,
0.0336646959185600,
-0.1499852240085602,
-0.0353716686367989,
-0.0855826437473297,
-0.0481679178774357,
-0.1020233854651451,
-0.0485014356672764,
-0.1201140284538269,
-0.0361230857670307,
0.0781171247363091,
-0.0773931667208672,
0.0567890591919422,
-0.0986990928649902,
-0.0559232868254185,
-0.1787946522235870,
-0.1317984461784363,
-0.0816511511802673,
-0.0176165346056223,
0.0861471891403198,
0.0556964688003063,
-0.1337312757968903,
0.0275424923747778,
0.0627413988113403,
0.0887576416134834,
-0.0108361570164561,
0.0254053920507431,
0.0032891149166971,
-0.0933797806501389,
-0.0309896953403950,
-0.0166724715381861,
-0.0454810447990894,
-0.0338960811495781,
-0.0594264902174473,
0.0171081442385912,
-0.0638566464185715,
-0.0205476880073547,
-0.1040696650743484,
0.0200758278369904,
0.0031966709066182,
0.0467552207410336,
0.0561445876955986,
-0.1487559825181961,
-0.0069675259292126,
-0.1613753885030746,
0.0737476572394371,
0.0485229752957821,
0.0373563393950462,
-0.0167052336037159,
-0.0217979010194540,
-0.0597619190812111,
-0.0588915161788464,
-0.0058597545139492,
0.0564193129539490,
-0.0918725505471230,
-0.0221261288970709,
-0.0752565264701843,
-0.0956872105598450,
0.0565454736351967,
-0.0475786104798317,
-0.1010696068406105,
-0.0705050304532051,
-0.0174330808222294,
-0.1390782296657562,
-0.1393044739961624,
-0.0816051810979843,
-0.1106598973274231,
0.0773725435137749,
-0.0417538881301880,
-0.0724568590521812,
-0.0573307052254677,
0.0823143199086189,
-0.0293739065527916,
-0.0058930418454111,
0.0538725182414055,
-0.0581562072038651,
-0.0358319282531738,
-0.0824383199214935,
-0.1092105582356453,
0.0485651008784771,
0.0010994422482327,
-0.0655590072274208,
-0.0213117636740208,
0.0824349969625473,
-0.0720710158348083,
0.0011312938295305,
0.0275019332766533,
0.0717619732022285,
0.0804066061973572,
-0.1564806401729584,
0.0456227920949459,
0.0187040548771620,
-0.0818518176674843,
-0.1099942699074745,
0.0649725422263145,
-0.0941059142351151,
0.1099557131528854,
-0.0273217726498842,
-0.0428161174058914,
0.0974272862076759,
0.1174544915556908,
-0.1351509839296341,
-0.0290004182606936,
-0.1159674227237701,
0.1378152072429657,
-0.0112623386085033,
0.0256775598973036,
0.0741220340132713,
-0.0952643603086472,
-0.0522797703742981,
-0.0129559524357319,
0.0312322787940502,
-0.0693529471755028,
0.0288098976016045,
0.1615485101938248,
-0.0564951524138451,
-0.0989565476775169,
-0.0758277922868729,
0.1599298566579819,
0.1132755205035210,
-0.0006375198136084,
-0.0842109844088554,
0.1450561285018921,
-0.1080284118652344,
0.0010624298593029,
-0.0953899621963501,
-0.0224854946136475,
0.0331130325794220,
0.0735441818833351,
-0.1400762796401978,
0.0207127202302217,
0.0301974397152662,
0.0380058735609055,
-0.1374348700046539,
-0.2380943596363068,
0.0033194252755493,
-0.0970457866787910,
-0.0614328719675541,
-0.0663978084921837,
0.0260916240513325,
0.1007603257894516,
-0.2105988711118698,
-0.0276347175240517,
0.0524916350841522,
-0.0751403644680977,
0.0159483030438423,
-0.0898601934313774,
-0.0169665906578302,
-0.1440319418907166,
0.0020882445387542,
0.1000386029481888,
0.0207661222666502,
0.0488719344139099,
0.0879808664321899,
-0.0958523526787758,
-0.1032720655202866,
0.0447386950254440,
-0.1227841973304749,
-0.0037103921640664,
-0.0402615107595921,
0.0154672581702471,
-0.0424235463142395,
-0.0761700049042702,
-0.0609877407550812,
-0.0249862875789404,
-0.0508521683514118,
-0.1256681978702545,
-0.1725831627845764,
-0.0482075773179531,
-0.0685090497136116,
-0.1295459121465683,
0.0281477700918913,
0.0104100378230214,
-0.1086114570498466,
-0.0632145106792450,
0.0191481802612543,
0.0418881364166737,
-0.0104964477941394,
0.0674818381667137,
-0.0411198325455189,
-0.0710691288113594,
0.0872775912284851,
-0.0357086621224880,
-0.0441464670002460,
-0.0128615451976657,
0.0159653574228287,
0.0142777012661099,
-0.0512424297630787,
-0.0320326313376427,
-0.0559333339333534,
-0.0188763923943043,
-0.0238546412438154,
0.0540142357349396,
-0.1263197660446167,
-0.0473024919629097,
-0.1087688580155373,
-0.0478024780750275,
-0.0476851537823677,
-0.0021302783861756,
-0.1202485859394073,
0.0762100890278816,
-0.0777785405516624,
-0.0736168175935745,
-0.0513341352343559,
-0.0572413988411427,
-0.0497598201036453,
-0.0707121118903160,
0.0023103284183890,
0.0637888610363007,
0.0055949441157281,
0.0394043438136578,
0.0044631068594754,
-0.1045874431729317,
-0.1258184909820557,
0.0058890953660011,
0.0531621910631657,
0.0683700665831566,
-0.0305155757814646,
0.1608779430389404,
-0.0502849556505680,
0.0328462980687618,
-0.0068926946260035,
0.0104634361341596,
0.0688956379890442,
0.1742309778928757,
0.0505701340734959,
-0.0515743307769299,
0.0598709844052792,
0.0132797993719578,
-0.0889623090624809,
0.0288397744297981,
-0.0214836411178112,
0.0117512345314026,
0.0870739668607712,
0.0760343372821808,
-0.0635458305478096,
-0.1194327846169472,
0.0767862200737000,
0.0971526503562927,
0.1036665290594101,
-0.0265391822904348,
-0.0120738279074430,
-0.0880884230136871,
0.0533117912709713,
-0.1053582280874252,
-0.0462311655282974,
0.0585046373307705,
-0.0656407102942467,
0.0125452941283584,
0.0868022367358208,
-0.1541242599487305,
0.0811368077993393,
-0.1280343383550644,
0.0621746815741062,
0.0045090131461620,
-0.0183045323938131,
-0.0248396396636963,
0.0309932064265013,
0.0504176095128059,
0.0128803392872214,
0.0241676289588213,
0.0926503911614418,
-0.0571093931794167,
-0.0629518553614616,
0.1169111803174019,
0.0923184156417847,
-0.0319434516131878,
-0.0794872492551804,
0.1950087845325470,
-0.0802312791347504,
0.1311741620302200,
-0.0113703627139330,
-0.0070314900949597,
-0.1130215823650360,
-0.0072209788486362,
0.0259658489376307,
-0.0972269028425217,
0.0253389831632376,
0.0491125173866749,
0.0266923420131207,
0.0803852826356888,
-0.2017792016267776,
0.1764414757490158,
0.0385726168751717,
0.0619176551699638,
-0.0098692802712321,
0.0930909886956215,
-0.0713071152567863,
0.0245289467275143,
-0.0605304799973965,
-0.0286649558693171,
0.0038114816416055,
-0.0301296338438988,
-0.0136376824229956,
0.0354803949594498,
-0.0726887658238411,
-0.0481643155217171,
-0.1277681738138199,
-0.0437632389366627,
-0.1384909003973007,
-0.0050850575789809,
-0.0039214817807078,
-0.1140808910131454,
0.0529450699687004,
0.0999316945672035,
-0.0097374627366662,
0.0368589162826538,
-0.0075261262245476,
-0.0739522278308868,
-0.0704126134514809,
-0.0454341024160385,
-0.0934159904718399,
0.0999492332339287,
-0.1836465299129486,
0.0221019275486469,
-0.1129881814122200,
-0.0798531100153923,
-0.1001854985952377,
0.0454327836632729,
0.0223971996456385,
-0.0186957437545061,
-0.0121678672730923,
-0.0190093964338303,
0.0161550790071487,
0.0468205064535141,
-0.1076881065964699,
-0.0613713003695011,
-0.0933495834469795,
0.1717024892568588,
-0.0100997034460306,
-0.1079670563340187,
-0.2407504171133041,
-0.1748969554901123,
0.1037327274680138,
-0.1669862568378448,
0.1375367045402527,
0.0053841504268348,
-0.0260370839387178,
0.0555737800896168,
-0.0041114590130746,
-0.0657366588711739,
0.0855817347764969,
0.0005115558742546,
-0.1617853194475174,
-0.0022824904881418,
-0.1752091646194458,
-0.0173664167523384,
-0.0023282326292247,
0.0376493819057941,
-0.1122504174709320,
-0.0108775841072202,
0.0537905767560005,
0.0893239080905914,
-0.1123126298189163,
-0.0209951531141996,
-0.1198116987943649,
0.0411530546844006,
-0.0138668101280928,
-0.1265305578708649,
-0.1498578935861588,
0.0716859251260757,
0.0967700704932213,
-0.0486416630446911,
0.0480487942695618,
0.1184057518839836,
-0.1167161762714386,
0.2147307544946671,
-0.0611612051725388,
-0.0866283029317856,
-0.0449601188302040,
-0.2014046609401703,
-0.1866690963506699,
-0.0147707983851433,
-0.0483095794916153,
-0.1334631741046906,
-0.1847421526908875,
-0.0075488402508199,
-0.1141188070178032,
0.1345240026712418,
0.0444286242127419,
-0.1530641168355942,
0.0560557581484318,
0.1356999874114990,
0.0513350963592529,
-0.0017746950034052,
-0.0397754497826099,
-0.0217628683894873,
-0.2271298468112946,
-0.0014802948571742,
-0.1103477030992508,
-0.1797540485858917,
-0.0291018895804882,
-0.0080353468656540,
-0.1747730970382690,
-0.0890763029456139,
-0.0980086773633957,
0.0256772078573704,
0.0443127155303955,
-0.0605517961084843,
-0.0161795113235712,
0.0935207679867744,
0.0269894208759069,
0.0476442389190197,
-0.0625355392694473,
-0.1341522783041000,
-0.1658807098865509,
-0.0237435083836317,
-0.0387078858911991,
-0.0757759064435959,
0.0049184663221240,
-0.0472856201231480,
-0.1281975507736206,
-0.0351621471345425,
-0.0925692990422249,
-0.0132028767839074,
-0.1043660491704941,
-0.0454603023827076,
-0.0905153751373291,
-0.0900915041565895,
-0.1291927844285965,
-0.0874098092317581,
-0.0405742004513741,
-0.0020440497901291,
-0.0677804723381996,
0.0170266442000866,
-0.1080425530672073,
0.0643072649836540,
-0.1249193623661995,
-0.0270337350666523,
0.0259667318314314,
0.2248335033655167,
-0.0113629857078195,
-0.1279981285333633,
-0.0832384824752808,
-0.0404944717884064,
-0.0832008644938469,
-0.0928699225187302,
0.0492389872670174,
-0.1642716079950333,
-0.1466985642910004,
0.0732569098472595,
-0.0499374084174633,
0.0532615669071674,
-0.0040659080259502,
0.0398751944303513,
0.0800106227397919,
-0.0611752122640610,
0.0605145022273064,
-0.0551008880138397,
0.0486164949834347,
0.0214861761778593,
0.0423593297600746,
0.0094244284555316,
-0.0690801292657852,
-0.0511671863496304,
-0.0198630169034004,
-0.0426550768315792,
0.0573112517595291,
-0.0091794906184077,
0.0914738625288010,
-0.0209241025149822,
0.0157592892646790,
0.0269479639828205,
0.1019779667258263,
-0.0430492125451565,
-0.0333084464073181,
-0.1632304787635803,
0.0875482112169266,
-0.0279434025287628,
-0.1393844187259674,
0.1324702054262161,
-0.0391955971717834,
-0.0420161038637161,
-0.0218478236347437,
0.0409038588404655,
-0.0029777770396322,
-0.0344615764915943,
-0.1576388478279114,
-0.0079173734411597,
0.0274329222738743,
-0.1396080851554871,
0.0603892616927624,
0.0493102073669434,
0.0178576391190290,
0.0240791812539101,
0.0862707495689392,
-0.0923255383968353,
0.0178487747907639,
-0.0935880839824677,
-0.0225717630237341,
0.1048259362578392,
-0.1930399090051651,
0.1975171416997910,
-0.0470972843468189,
0.2424551397562027,
-0.2331283390522003,
0.0256085749715567,
-0.1827953755855560,
0.0729329958558083,
0.0709664002060890,
-0.1198917627334595,
-0.0046603200025856,
0.0432372391223907,
-0.0245650447905064,
-0.2829400300979614,
-0.0956892222166061,
0.0177375841885805,
-0.0888396278023720,
-0.0518547929823399,
-0.0068534705787897,
0.0572627335786819,
0.0325412228703499,
-0.0196213629096746,
-0.1151902899146080,
-0.1219452023506165,
-0.1042137593030930,
-0.1292738020420074,
-0.1503909081220627,
-0.1188048198819160,
-0.0405518896877766,
0.0323668494820595,
-0.0539251007139683,
-0.0378339290618896,
-0.0295703746378422,
-0.0744879469275475,
-0.0691568031907082,
0.1229348108172417,
-0.0435038730502129,
-0.0250029675662518,
-0.1361080259084702,
-0.0031121200881898,
-0.0198647659271955,
-0.1405350267887115,
-0.0834142044186592,
0.0569510720670223,
-0.0380348004400730,
-0.0680429860949516,
-0.0329665727913380,
-0.0034946366213262,
0.0685000270605087,
0.0520955547690392,
-0.1414484530687332,
-0.0769104287028313,
0.0911211594939232,
0.0654260218143463,
0.0576867945492268,
-0.0766204744577408,
0.0355907157063484,
0.0304034017026424,
-0.0343736447393894,
-0.0323993228375912,
0.0604043528437614,
0.1246062442660332,
0.0668975636363029,
0.0699344351887703,
0.0463190749287605,
-0.1497306525707245,
-0.0281015280634165,
-0.0794019028544426,
-0.0283757299184799,
-0.0907663032412529,
-0.0743238031864166,
0.1077930331230164,
0.1087325066328049,
-0.0807026252150536,
-0.0496640056371689,
0.0959177613258362,
-0.0189126376062632,
-0.0008948746835813,
-0.0162073001265526,
-0.0340339839458466,
0.1155147776007652,
-0.1794588565826416,
-0.0119763221591711,
-0.1443005949258804,
-0.0981969311833382,
-0.0817666202783585,
0.0114179765805602,
-0.0002207977231592,
0.0436118058860302,
-0.0235438663512468,
0.0484799370169640,
-0.0235765241086483,
-0.0820861011743546,
0.0578362047672272,
-0.0736793354153633,
-0.0429393015801907,
0.0221157800406218,
-0.0662342086434364,
-0.0778906270861626,
-0.0782047063112259,
0.0358266383409500,
-0.0490190833806992,
0.0957835763692856,
0.0396104492247105,
0.0724491998553276,
-0.0149293607100844,
-0.1197475939989090,
0.0818961262702942,
0.0119463643059134,
-0.0400218069553375,
0.0119390105828643,
-0.0226154699921608,
-0.0494787544012070,
-0.1361519247293472,
-0.1443095207214355,
-0.0036937135737389,
-0.0110400486737490,
0.1496013253927231,
-0.1344501972198486,
-0.1341002434492111,
0.0171572621911764,
0.0580960325896740,
-0.0051948348991573,
-0.1011783182621002,
0.0117674777284265,
0.1795794814825058,
-0.0955338850617409,
0.0244727842509747,
0.0103226881474257,
0.0152929387986660,
-0.0401576049625874,
0.0155254798009992,
0.0867618098855019,
-0.0531651452183723,
-0.0073758349753916,
-0.0198206100612879,
0.0427505224943161,
-0.0474579371511936,
-0.0635341852903366,
0.2170222848653793,
0.2180186808109283,
-0.0216600261628628,
-0.0298114381730556,
-0.0400021709501743,
-0.0396596156060696,
-0.0278854481875896,
-0.1973979920148849,
-0.0934535041451454,
-0.1529614776372910,
-0.0047413478605449,
-0.0651300922036171,
-0.1653074324131012,
0.0697474703192711,
-0.2295960336923599,
0.0572354868054390,
-0.0827663019299507,
-0.1193496286869049,
-0.0287373587489128,
-0.0613361187279224,
0.0010708722984418,
0.1119055375456810,
0.0002776847395580,
-0.0643825158476830,
0.0167135000228882,
-0.0388375185430050,
0.0094685424119234,
-0.0986719876527786,
0.0455213859677315,
-0.0173848867416382,
0.0125902807340026,
-0.0892683267593384,
-0.0148917939513922,
-0.0611253976821899,
0.0950621366500854,
0.0531291961669922,
-0.0958153158426285,
-0.0762889757752419,
0.0080126412212849,
-0.0214696601033211,
-0.1305565685033798,
-0.0555854476988316,
0.0517630763351917,
-0.0553052350878716,
-0.1739824861288071,
-0.0563465915620327,
-0.0056290752254426,
-0.0162162892520428,
0.0359079055488110,
-0.0879126265645027,
0.0173172391951084,
0.0298868902027607,
-0.0274717919528484,
-0.0378857590258121,
-0.0738318189978600,
0.0861093401908875,
-0.0688552334904671,
0.0771461948752403,
0.0208336189389229,
-0.0041050203144550,
-0.0046375505626202,
-0.1081262007355690,
-0.0193953122943640,
0.0104046128690243,
-0.0585126131772995,
-0.1244689226150513,
-0.0538952834904194,
0.0633622258901596,
-0.0155083648860455,
-0.0710719451308250,
-0.0199611876159906,
-0.0028763036243618,
-0.0007408769452013,
-0.0432810187339783,
0.1214941591024399,
-0.1097913980484009,
-0.1603540033102036,
0.0162228457629681,
0.1663181334733963,
-0.0835636258125305,
-0.1063934788107872,
-0.0497931167483330,
0.1015165373682976,
-0.0136663028970361,
0.0328920967876911,
0.1513339132070541,
-0.0731683298945427,
-0.0707694068551064,
0.0561191737651825,
0.1218455731868744,
-0.1348875313997269,
-0.0984817221760750,
0.0346226170659065,
0.1043316274881363,
-0.0132172936573625,
0.0238858964294195,
-0.0512904748320580,
0.0327742099761963,
0.1274699568748474,
-0.1182344108819962,
-0.0060878200456500,
-0.1506841033697128,
0.0350462570786476,
-0.1469460129737854,
-0.0556080490350723,
-0.0599075257778168,
-0.0011856427881867,
0.0617986917495728,
-0.1353335380554199,
-0.0076002022251487,
-0.0508371554315090,
-0.0740996748209000,
-0.0288218222558498,
0.0319688208401203,
0.0209020171314478,
0.0535110458731651,
-0.0123672382906079,
-0.0253216959536076,
-0.1414494514465332,
-0.0302058719098568,
-0.1084538549184799,
-0.0401600226759911,
0.0423665754497051,
-0.0502314008772373,
0.1127696037292480,
-0.0295098666101694,
0.0419659353792667,
0.0255899932235479,
-0.0038492321036756,
0.0578850284218788,
0.0632007718086243,
0.0452367141842842,
-0.0146013144403696,
0.1191825941205025,
-0.0547626651823521,
-0.1376363188028336,
-0.1336846202611923,
-0.0076959868893027,
0.1208539903163910,
-0.0797362700104713,
0.0657012611627579,
-0.0163681898266077,
-0.0762937515974045,
0.0044710356742144,
0.0226492583751678,
0.0757712051272392,
0.0043114377185702,
0.1171793639659882,
0.0236971285194159,
-0.0722367614507675,
0.0531384497880936,
-0.1126992776989937,
-0.0763571038842201,
0.0014907812001184,
-0.0396328419446945,
0.0626956224441528,
0.0022614148911089,
-0.0375701449811459,
0.0545406565070152,
-0.0625990778207779,
0.0471866838634014,
0.0835430994629860,
-0.0535333603620529,
-0.0607735887169838,
0.0898911580443382,
0.0512941107153893,
0.0507774204015732,
0.0119810476899147,
0.0760589092969894,
-0.0945460647344589,
-0.0887437760829926,
-0.1308742761611938,
0.0479046702384949,
-0.0599197149276733,
-0.0766307488083839,
0.0124205257743597,
0.1447440683841705,
-0.1159083768725395,
-0.1163339391350746,
-0.0159974507987499,
0.0213968921452761,
-0.0371385179460049,
0.0028025016654283,
-0.0165234599262476,
-0.1015993729233742,
0.0630718991160393,
-0.1094338521361351,
-0.0927353575825691,
0.0266688875854015,
0.0074104918166995,
-0.0433493331074715,
0.0652223676443100,
0.0685810670256615,
0.0836864858865738,
-0.1488549709320068,
-0.0951534360647202,
-0.0521540381014347,
0.0645904317498207,
-0.0178596228361130,
0.0411559753119946,
0.0188939087092876,
-0.1422149688005447,
-0.1185353025794029,
-0.0059563955292106,
-0.0166471526026726,
-0.0776117891073227,
0.0423548519611359,
0.0626787617802620,
0.0775569677352905,
0.0471419915556908,
-0.0040659452788532,
-0.0131872389465570,
0.0071668196469545,
-0.0792804881930351,
-0.0138444714248180,
-0.0404640883207321,
-0.0658899471163750,
-0.0345480889081955,
-0.0162306837737560,
-0.0783962607383728,
0.1326125711202621,
-0.0361849032342434,
0.0114076798781753,
-0.0103246234357357,
-0.0592018030583858,
-0.0131966574117541,
-0.0290666092187166,
-0.0540784373879433,
-0.0757159516215324,
0.0815198794007301,
0.0031126348767430,
-0.1734970211982727,
-0.0569982901215553,
-0.0641433000564575,
0.0305656846612692,
0.0373891778290272,
-0.0805858001112938,
-0.0437242276966572,
-0.0514512360095978,
0.0683970451354980,
0.0039184684865177,
0.0149374799802899,
0.1644587367773056,
0.0203598756343126,
-0.1129280775785446,
-0.0064263944514096,
0.1335740089416504,
-0.0413271635770798,
0.0139175327494740,
-0.0681334361433983,
-0.0601233765482903,
-0.0782792344689369,
-0.3283376693725586,
0.0030790537130088,
-0.1268444955348969,
0.0804045125842094,
-0.1952835023403168,
0.0616706386208534,
-0.1025829613208771,
0.1241962239146233,
0.1097880974411964,
-0.0414946042001247,
-0.1886163353919983,
-0.1045553907752037,
-0.1954479366540909,
-0.1483834683895111,
-0.1077505946159363,
-0.0293284542858601,
-0.1427928954362869,
-0.1061255782842636,
0.0747852623462677,
0.0610033981502056,
-0.0963291078805923,
-0.0780023932456970,
0.0729874446988106,
-0.0689138621091843,
-0.0683029964566231,
-0.0281733013689518,
-0.0569829083979130,
-0.0201969295740128,
-0.1571018546819687,
-0.0369639918208122,
-0.0105136940255761,
0.0883961096405983,
-0.0756555646657944,
-0.1054154261946678,
0.0484992526471615,
-0.0344198383390903,
-0.1406438201665878,
0.0796354264020920,
-0.0866037085652351,
-0.0406002067029476,
0.1354595124721527,
-0.0593448057770729,
-0.1413228958845139,
-0.1030736938118935,
0.0636494308710098,
-0.1247560009360313,
-0.1572950184345245,
-0.0141115728765726,
-0.0904595926403999,
-0.0755593255162239,
-0.2083004117012024,
0.1013750806450844,
0.0364862419664860,
-0.0986625701189041,
-0.0194751862436533,
-0.0533810928463936,
-0.0847447887063026,
0.0512380786240101,
0.0244646202772856,
-0.0294110979884863,
0.0919794067740440,
-0.2112148404121399,
0.0491601303219795,
-0.0217531584203243,
0.0937057435512543,
-0.2156987041234970,
-0.0241342410445213,
-0.0464583411812782,
0.1170018389821053,
0.0356538221240044,
-0.0162092819809914,
-0.1386087983846664,
0.0337805934250355,
0.0267380382865667,
0.0052304221317172,
-0.0339788086712360,
0.0199293792247772,
0.0635455027222633,
0.0169670116156340,
0.0449796468019485,
-0.1130451932549477,
-0.1024826914072037,
0.0826597884297371,
-0.1349507421255112,
-0.0683188661932945,
-0.0351765155792236,
-0.1876562237739563,
-0.2143293470144272,
0.0130601571872830,
-0.0650443956255913,
0.0003330221516080,
0.0535361580550671,
-0.1174639016389847,
-0.0382911153137684,
0.0355289541184902,
0.0526343025267124,
0.0969534590840340,
0.0417218729853630,
-0.0622853040695190,
-0.1903530955314636,
-0.0137897338718176,
-0.0992949306964874,
-0.0400676019489765,
0.0372815430164337,
0.0026828967966139,
-0.0371825844049454,
-0.0629728287458420,
0.0753854140639305,
-0.0751744806766510,
-0.0442590266466141,
-0.0562333352863789,
-0.0693799927830696,
-0.0889866799116135,
0.1132406592369080,
-0.0776917785406113,
-0.0067479293793440,
-0.0686245709657669,
-0.1078810989856720,
0.1344932764768600,
0.2083100378513336,
0.0078157531097531,
0.2020405232906342,
0.1547304540872574,
0.0345452651381493,
-0.0791767612099648,
0.0542881973087788,
0.0059582316316664,
-0.0994645878672600,
-0.1633115261793137,
-0.2712185680866241,
-0.0685984119772911,
-0.1161960661411285,
0.1013091206550598,
0.0044026193208992,
0.0766166299581528,
0.1422753334045410,
-0.0877571478486061,
0.1104794889688492,
0.1077618375420570,
-0.0494542643427849,
0.1838733404874802,
0.1231793090701103,
-0.2105205655097961,
0.2096056342124939,
0.1386546790599823,
-0.1844275593757629,
0.0983263775706291,
-0.0728186443448067,
0.0713993608951569,
0.2330374717712402,
-0.1023318469524384,
-0.0310880169272423,
0.0182444062083960,
-0.1491567790508270,
-0.0442238114774227,
-0.0158283803611994,
-0.0383359827101231,
-0.0673505738377571,
0.0004390949325170,
-0.0147230960428715,
0.0787293016910553,
-0.0670475512742996,
-0.0536523982882500,
-0.1068361923098564,
0.0630722194910049,
0.0650040879845619,
-0.0494920238852501,
-0.0176475346088409,
0.0937208533287048,
-0.0093379933387041,
-0.0572103746235371,
0.0637493357062340,
-0.0446799360215664,
0.0294519774615765,
-0.0616089366376400,
-0.1116053387522697,
-0.0691018551588058,
-0.0845378041267395,
-0.1298123449087143,
-0.1136314868927002,
-0.0561343319714069,
-0.0803447589278221,
-0.0024258317425847,
0.1008831411600113,
-0.0633569806814194,
0.0730344727635384,
0.1842005848884583,
0.0699903517961502,
-0.1341547369956970,
0.0266501512378454,
0.0431498661637306,
0.0715031400322914,
0.0371837764978409,
-0.0950210317969322,
-0.0443997643887997,
-0.0432875044643879,
0.1260805726051331,
0.0139587512239814,
-0.1108465865254402,
0.1046637594699860,
0.0528994910418987,
-0.1592152565717697,
-0.0740326195955276,
-0.0452436916530132,
0.0534660369157791,
-0.0966218411922455,
0.0077175307087600,
-0.0738724023103714,
-0.0525301657617092,
0.0342505201697350,
0.1364978700876236,
0.0590576715767384,
-0.1615454852581024,
-0.0576644539833069,
0.0387366376817226,
-0.1131448224186897,
0.0362582951784134,
-0.1233545318245888,
0.0570782423019409,
-0.0480176955461502,
-0.1147537231445312,
0.0951035842299461,
-0.0718599706888199,
0.1016050726175308,
0.1429640948772430,
0.1226349472999573,
-0.0598401539027691,
-0.1330838650465012,
-0.0700097829103470,
0.0206426195800304,
0.1006787940859795,
0.0038137482479215,
-0.0832391977310181,
0.0085596805438399,
0.0435763299465179,
0.0268620084971189,
-0.0210197921842337,
-0.0319431424140930,
-0.0911596417427063,
0.1043948680162430,
-0.0309758670628071,
-0.0374787859618664,
0.0333350226283073,
0.0065026762895286,
-0.0078800506889820,
-0.0164562724530697,
0.0479578971862793,
0.0345776863396168,
0.0380507111549377,
0.0635725632309914,
0.0871304124593735,
0.0746468380093575,
-0.0655013099312782,
0.0867317840456963,
-0.0349608361721039,
-0.0754769220948219,
-0.0043331016786397,
-0.0381862893700600,
-0.1599271595478058,
-0.0270196534693241,
0.0185715947300196,
-0.0803148448467255,
-0.1366130709648132,
0.0666482597589493,
0.0114025799557567,
-0.0190816372632980,
0.0259072147309780,
-0.1089105531573296,
-0.0304254237562418,
-0.0892172753810883,
-0.0353247970342636,
0.0820882320404053,
-0.1951491534709930,
0.1269472241401672,
-0.0121926935389638,
-0.0213962960988283,
0.0724131017923355,
-0.0610620565712452,
0.1341366618871689,
0.0501199774444103,
-0.0593137592077255,
-0.2439780235290527,
-0.0323322825133801,
-0.1572573781013489,
0.0362940579652786,
0.0571811161935329,
0.0611843913793564,
-0.0452088266611099,
-0.0516036786139011,
-0.0648955330252647,
0.0070082447491586,
-0.1311230510473251,
0.0883413851261139,
0.1558117419481277,
0.0053412313573062,
-0.1162898018956184,
0.1312631070613861,
-0.0098592182621360,
-0.0503051206469536,
-0.1051232963800430,
0.1145999059081078,
-0.0470308177173138,
0.0119063816964626,
-0.1249678730964661,
-0.0711257383227348,
-0.0949678719043732,
0.0324076898396015,
-0.0584757737815380,
0.0206988826394081,
-0.0769139826297760,
-0.1838490217924118,
-0.0443192459642887,
-0.0385860092937946,
0.1197577491402626,
0.1882591545581818,
-0.0033844725694507,
-0.0063490835018456,
0.0518805980682373,
-0.0780010893940926,
0.0653268918395042,
0.0474226698279381,
0.0836061090230942,
-0.1766041815280914,
-0.1705867946147919,
-0.0005469673196785,
0.0454547926783562,
0.1070047691464424,
0.0348262190818787,
-0.0958544760942459,
-0.0372234024107456,
0.1726168990135193,
0.1359193921089172,
-0.0014338593464345,
-0.0935906767845154,
-0.0721570551395416,
0.1138421297073364,
0.1196958199143410,
-0.1520049870014191,
-0.0096540348604321,
0.0126802893355489,
-0.0329031273722649,
-0.2015106230974197,
-0.1083655208349228,
-0.0190972983837128,
-0.1058055907487869,
0.1210149526596069,
0.1291923075914383,
0.0762962698936462,
-0.1335011869668961,
0.0582768283784389,
0.0448136739432812,
-0.0181362647563219,
0.1119175255298615,
0.0505292713642120,
-0.0366666130721569,
0.0815685465931892,
0.0448642186820507,
0.0012597177410498,
0.0045372447930276,
0.0574374832212925,
0.0407123118638992,
0.0629170760512352,
-0.1051952317357063,
0.0894065275788307,
-0.1941314786672592,
0.0385413952171803,
-0.0349265038967133,
-0.1623152792453766,
0.0242376495152712,
0.1842472404241562,
0.0732586756348610,
0.1014003977179527,
0.0314200818538666,
-0.1798420399427414,
0.0880749300122261,
-0.1007356494665146,
0.0187778715044260,
-0.2376499027013779,
-0.0567237250506878,
-0.0066677518188953,
-0.0257938001304865,
-0.1110068038105965,
0.0683269053697586,
0.1114668473601341,
0.0149976247921586,
-0.1190140694379807,
0.0359721370041370,
-0.1113691926002502,
-0.0351274237036705,
0.0879852175712585,
-0.1422323286533356,
-0.0121117103844881,
-0.0252203326672316,
-0.0144292125478387,
0.0110487695783377,
-0.0765414312481880,
0.2424914240837097,
0.0804222002625465,
-0.1328198015689850,
0.0579080209136009,
-0.0237817987799644,
-0.0643399357795715,
0.0103844422847033,
-0.0075211799703538,
-0.1394409984350204,
-0.0271366313099861,
-0.0053550777956843,
-0.0112859755754471,
-0.1049088537693024,
-0.1241711005568504,
-0.0337508916854858,
-0.0050943945534527,
0.0131260398775339,
0.0838489755988121,
0.1767392903566360,
0.0192725993692875,
-0.0614666640758514,
0.0997185781598091,
0.0440685227513313,
-0.0777367502450943,
0.1371511369943619,
0.0150280697271228,
0.0807997807860374,
-0.1577467918395996,
0.0050333575345576,
0.0168090332299471,
-0.0808138921856880,
0.0291221458464861,
0.0653999000787735,
0.0028291563503444,
-0.0727508515119553,
0.0720616206526756,
-0.0269574858248234,
-0.0543020404875278,
0.0478985384106636,
0.0549517087638378,
-0.0779423937201500,
-0.1022603288292885,
-0.0548926368355751,
-0.1675677895545959,
0.0606754869222641,
-0.1109593436121941,
-0.0149186812341213,
0.0877701938152313,
-0.1510115414857864,
-0.0262663010507822,
-0.0254278481006622,
0.0783366635441780,
0.0715441703796387,
-0.1153882220387459,
-0.0114292204380035,
0.0217586979269981,
0.0108241308480501,
0.0975487604737282,
-0.1026100963354111,
-0.0066212695091963,
-0.0548845231533051,
0.0859878212213516,
0.0342675410211086,
-0.0222514905035496,
-0.1133621558547020,
0.0642177686095238,
-0.2756328582763672,
0.0031807234045118,
-0.0985457897186279,
-0.0612725354731083,
-0.0597850941121578,
-0.0000747801677790,
0.0760007500648499,
-0.0510158911347389,
0.0445997901260853,
-0.0220049563795328,
-0.0723021104931831,
0.0195799022912979,
0.0495741181075573,
0.0732098594307899,
-0.0301172062754631,
-0.0342444814741611,
-0.1574815809726715,
0.0474351011216640,
0.0745281055569649,
-0.0186784733086824,
-0.1840174198150635,
-0.0309178996831179,
0.0765022560954094,
0.0356001071631908,
-0.0870628729462624,
0.0796493291854858,
-0.0118915373459458,
-0.1105396673083305,
0.0506597794592381,
-0.0229249037802219,
-0.0265851821750402,
-0.0817956477403641,
-0.0956574380397797,
0.0514147169888020,
0.0498964376747608,
0.0903520435094833,
-0.0109373042359948,
-0.1278731375932693,
-0.1844380199909210,
0.0054899430833757,
-0.0503750033676624,
0.0377320982515812,
0.0881210863590240,
-0.0133795095607638,
0.0607926882803440,
0.0465610846877098,
-0.1842318624258041,
0.0199878979474306,
0.0653087571263313,
-0.0479440428316593,
-0.0591221079230309,
-0.1473955810070038,
0.0132338479161263,
-0.1113277152180672,
-0.0426941812038422,
-0.0575882941484451,
-0.0493546985089779,
0.0828178301453590,
-0.0408134758472443,
0.0146931707859039,
0.0433787330985069,
0.0653578937053680,
0.1368858367204666,
