/*
 * nnet.h
 *
 *  Created on: Feb 13, 2020
 *      Author: ECE113DWS20
 */

#ifndef NNET_H_
#define NNET_H_


#define NUM_NEURONS 5

#define NUM_INPUTS 13

#define NUM_OUTPUTS 4

//preprocessing
static double x1_step1_xoffset[NUM_INPUTS] = {28.28398,-11.65919,0.5675173,-16.9357,
		-13.34606,-7.606739,-8.34811,-6.825197,-5.954667,-6.722548,-4.678594,-5.638944,-3.289066};
static double x1_step1_gain[NUM_INPUTS] = {0.0560836139383484,0.0794685145745256,0.0536538360251369,
		0.0740072208845417,0.103484718540969,0.13057390626726,0.157182695096929,0.229841308367051,
		0.208959908325109,0.213654030882408,0.200555056173466,0.192997603066269,0.258062684716431};
static double x1_step1_ymin = -1;

// Layer 1
static double b1 [NUM_NEURONS]= {-1.183557045541087982,0.17953213459713049382,-1.5949224450307473155,0.47786377390309275892,1.4347091079340064113};
static double IW1_1[NUM_NEURONS][NUM_INPUTS] = {
	    {0.493186679150389,-0.655023636738734,-1.58907105056058,-0.671175463450202,0.0557351140914809,0.457942645443162,-0.0424229198962122,-0.962848094046683,-0.169703906450517,-1.29326436058782,-0.521079675176976,-1.55697983740444,-0.730267939035300},
	    {-0.936306385291874,-0.297178853963483,0.551078995536751,0.158208225773722,-0.855623475725215,-0.896487502694733,-0.0521537150262756,-0.399577789784232,0.452584226008117,-0.196987879222797,-0.672565363857875,-0.422111658487805,-0.553046982956028},
	    {0.352349550223308,-0.0564608034098724,-0.306029966178879,-1.93405068594884,-0.310140879715684,1.27978327305918,0.533558916522493,-0.662619121161324,-0.532926135231454,0.280843665538178,1.01713709746084,-0.611574308795433,-0.635007660009604},
	    {0.820908366495405,0.469873933264459,0.0173689197038923,-1.53840951955917,1.60325648121016,0.744554625156800,0.578757279699235,0.192353076617686,-0.128304001584955,0.916773102908278,0.821942939894642,0.903338402441147,0.306642805653851},
	    {0.958285977750901,-0.536439597270897,-0.823053064833404,-0.612079358218852,0.631443156484539,0.839862935332723,0.0990768604376076,0.536003218375735,-0.954245021347596,-0.0693466205825344,0.215932527924803,-1.13593332234848,-0.110475525161731}
	};

// Layer 2
static double b2 [NUM_OUTPUTS] = {0.21109771974399341166,-0.64250347668790497302,-0.31419527186766910143,-0.33508556053272248176};
static double LW2_1[NUM_OUTPUTS][NUM_NEURONS] ={
	    {1.81848399609883,-1.37750151787381,6.01215813549043,1.87848779475035,2.00097370100905},
	    {3.41608995155076,0.580075976737844,-1.50132319910719,-3.37084210206348,2.12475375824946},
	    {-2.50579980592036,0.429463408695987,-1.62343213705078,-3.22481529292064,-5.26236985978323},
	    {-3.59996454870284,-1.36294069100192,-2.10754233263611,3.94850352088950,0.798643041253323},
	};

#endif /* NNET_H_ */
